,0,1,2,3,4,5,6,7,8,9,10,11,12,13,14,15,16,17,18,19,20,21,22,23,24,25,26,27,28,29,30,31,32,33,34,35,36,37,38,39,40,41,42,43,44,45,46,47,48,49,50,51,52,53,54,55,56,57,58,59,60,61,62,63,64,65,66,67,68,69,70,71,72,73,74,75,76,77,78,79,80,81,82,83,84,85,86,87,88,89,90,91,92,93,94,95,96,97,98,99,100,101,102,103,104,105,106,107,108,109,110,111,112,113,114,115,116,117,118,119,120,121,122,123,124,125,126,127,128,129,130,131,132,133,134,135,136,137,138,139,140,141,142,143,144,145,146,147,148,149,150,151,152,153,154,155,156,157,158,159,160,161,162,163,164,165,166,167,168,169,170,171,172,173,174,175,176,177,178,179,180,181,182,183,184,185,186,187,188,189,190,191,192,193,194,195,196,197,198,199,200,201,202,203,204,205,206,207,208,209,210,211,212,213,214,215,216,217,218,219,220,221,222,223,224,225,226,227,228,229,230,231,232,233,234,235,236,237,238,239,240,241,242,243,244,245,246,247,248,249,250,251,252,253,254,255,256,257,258,259,260,261,262,263,264,265,266,267,268,269,270,271,272,273,274,275,276,277,278,279,280,281,282,283,284,285,286,287,288,289,290,291,292,293,294,295,296,297,298,299,300,301,302,303,304,305,306,307,308,309,310,311,312,313,314,315,316,317,318,319,320,321,322,323,324,325,326,327,328,329,330,331,332,333,334,335,336,337,338,339,340,341,342,343,344,345,346,347,348,349,350,351,352,353,354,355,356,357,358,359,360,361,362,363,364,365,366,367,368,369,370,371,372,373,374,375,376,377,378,379,380,381,382,383,384,385,386,387,388,389,390,391,392,393,394,395,396,397,398,399,400,401,402,403,404,405,406,407,408,409,410,411,412,413,414,415,416,417,418,419,420,421,422,423,424,425,426,427,428,429,430,431,432,433,434,435,436,437,438,439,440,441,442,443,444,445,446,447,448,449,450,451,452,453,454,455,456,457,458,459,460,461,462,463,464,465,466,467,468,469,470,471,472,473,474,475,476,477,478,479,480,481,482,483,484,485,486,487,488,489,490,491,492,493,494,495,496,497,498,499,500,501,502,503,504,505,506,507,508,509,510,511,512,513,514,515,516,517,518,519,520,521,522,523,524,525,526,527,528,529,530,531,532,533,534,535,536,537,538,539,540,541,542,543,544,545,546,547,548,549,550,551,552,553,554,555,556,557,558,559,560,561,562,563,564,565,566,567,568,569,570,571,572,573,574,575,576,577,578,579,580,581,582,583,584,585,586,587,588,589,590,591,592,593,594,595,596,597,598,599,600,601,602,603,604,605,606,607,608,609,610,611,612,613,614,615,616,617,618,619,620,621,622,623,624,625,626,627,628,629,630,631,632,633,634,635,636,637,638,639,640,641,642,643,644,645,646,647,648,649,650,651,652,653,654,655,656,657,658,659,660,661,662,663,664,665,666,667,668,669,670,671,672,673,674,675,676,677,678,679,680,681,682,683,684,685,686,687,688,689,690,691,692,693,694,695,696,697,698,699,700,701,702,703,704,705,706,707,708,709,710,711,712,713,714,715,716,717,718,719,720,721,722,723,724,725,726,727,728,729,730,731,732,733,734,735,736,737,738,739,740,741,742,743,744,745,746,747,748,749,750,751,752,753,754,755,756,757,758,759,760,761,762,763,764,765,766,767,768,769,770,771,772,773,774,775,776,777,778,779,780,781,782,783,784,785,786,787,788,789,790,791,792,793,794,795,796,797,798,799,800,801,802,803,804,805,806,807,808,809,810,811,812,813,814,815,816,817,818,819,820,821,822,823,824,825,826,827,828,829,830,831,832,833,834,835,836,837,838,839,840,841,842,843,844,845,846,847,848,849,850,851,852,853,854,855,856,857,858,859,860,861,862,863,864,865,866,867,868,869,870,871,872,873,874,875,876,877,878,879,880,881,882,883,884,885,886,887,888,889,890,891,892,893,894,895,896,897,898,899,900,901,902,903,904,905,906,907,908,909,910,911,912,913,914,915,916,917,918,919,920,921,922,923,924,925,926,927,928,929,930,931,932,933,934,935,936,937,938,939,940,941,942,943,944,945,946,947,948,949,950,951,952,953,954,955,956,957,958,959,960,961,962,963,964,965,966,967,968,969,970,971,972,973,974,975,976,977,978,979,980,981,982,983,984,985,986,987,988,989,990,991,992,993,994,995,996,997,998,999,1000,1001,1002,1003,1004,1005,1006,1007,1008,1009,1010,1011,1012,1013,1014,1015,1016,1017,1018,1019,1020,1021,1022,1023,1024,1025,1026,1027,1028,1029,1030,1031,1032,1033,1034,1035,1036,1037,1038,1039,1040,1041,1042,1043,1044,1045,1046,1047,1048,1049,1050,1051,1052,1053,1054,1055,1056,1057,1058,1059,1060,1061,1062,1063,1064,1065,1066,1067,1068,1069,1070,1071,1072,1073,1074,1075,1076,1077,1078,1079,1080,1081,1082,1083,1084,1085,1086,1087,1088,1089,1090,1091,1092,1093,1094,1095,1096,1097,1098,1099,1100,1101,1102,1103,1104,1105,1106,1107,1108,1109,1110,1111,1112,1113,1114,1115,1116,1117,1118,1119,1120,1121,1122,1123,1124,1125,1126,1127,1128,1129,1130,1131,1132,1133,1134,1135,1136,1137,1138,1139,1140,1141,1142,1143,1144,1145,1146,1147,1148,1149,1150,1151,1152,1153,1154,1155,1156,1157,1158,1159,1160,1161,1162,1163,1164,1165,1166,1167,1168,1169,1170,1171,1172,1173,1174,1175,1176,1177,1178,1179,1180,1181,1182,1183,1184,1185,1186,1187,1188,1189,1190,1191,1192,1193,1194,1195,1196,1197,1198,1199,1200,1201,1202,1203,1204,1205,1206,1207,1208,1209,1210,1211,1212,1213,1214,1215,1216,1217,1218,1219,1220,1221,1222,1223,1224,1225,1226,1227,1228,1229,1230,1231,1232,1233,1234,1235,1236,1237,1238,1239,1240,1241,1242,1243,1244,1245,1246,1247,1248,1249,1250,1251,1252,1253,1254,1255,1256,1257,1258,1259,1260,1261,1262,1263,1264,1265,1266,1267,1268,1269,1270,1271,1272,1273,1274,1275,1276,1277,1278,1279,1280,1281,1282,1283,1284,1285,1286,1287,1288,1289,1290,1291,1292,1293,1294,1295,1296,1297,1298,1299,1300,1301,1302,1303,1304,1305,1306,1307,1308,1309,1310,1311,1312,1313,1314,1315,1316,1317,1318,1319,1320,1321,1322,1323,1324,1325,1326,1327,1328,1329,1330,1331,1332,1333,1334,1335,1336,1337,1338,1339,1340,1341,1342,1343,1344,1345,1346,1347,1348,1349,1350,1351,1352,1353,1354,1355,1356,1357,1358,1359,1360,1361,1362,1363,1364,1365,1366,1367,1368,1369,1370,1371,1372,1373,1374,1375,1376,1377,1378,1379,1380,1381,1382,1383,1384,1385,1386,1387,1388,1389,1390,1391,1392,1393,1394,1395,1396,1397,1398,1399,1400,1401,1402,1403,1404,1405,1406,1407,1408,1409,1410,1411,1412,1413,1414,1415,1416,1417,1418,1419,1420,1421,1422,1423,1424,1425,1426,1427,1428,1429,1430,1431,1432,1433,1434,1435,1436,1437,1438,1439,1440,1441,1442,1443,1444,1445,1446,1447,1448,1449,1450,1451,1452,1453,1454,1455,1456,1457,1458,1459,1460,1461,1462,1463,1464,1465,1466,1467,1468,1469,1470,1471,1472,1473,1474,1475,1476,1477,1478,1479,1480,1481,1482,1483,1484,1485,1486,1487,1488,1489,1490,1491,1492,1493,1494,1495,1496,1497,1498,1499,1500,1501,1502,1503,1504,1505,1506,1507,1508,1509,1510,1511,1512,1513,1514,1515,1516,1517,1518,1519,1520,1521,1522,1523,1524,1525,1526,1527,1528,1529,1530,1531,1532,1533,1534,1535,1536,1537,1538,1539,1540,1541,1542,1543,1544,1545,1546,1547,1548,1549,1550,1551,1552,1553,1554,1555,1556,1557,1558,1559,1560,1561,1562,1563,1564,1565,1566,1567,1568,1569,1570,1571,1572,1573,1574,1575,1576,1577,1578,1579,1580,1581,1582,1583,1584,1585,1586,1587,1588,1589,1590,1591,1592,1593,1594,1595,1596,1597,1598,1599,1600,1601,1602,1603,1604,1605,1606,1607,1608,1609,1610,1611,1612,1613,1614,1615,1616,1617,1618,1619,1620,1621,1622,1623,1624,1625,1626,1627,1628,1629,1630,1631,1632,1633,1634,1635,1636,1637,1638,1639,1640,1641,1642,1643,1644,1645,1646,1647,1648,1649,1650,1651,1652,1653,1654,1655,1656,1657,1658,1659,1660,1661,1662,1663,1664,1665,1666,1667,1668,1669,1670,1671,1672,1673,1674,1675,1676,1677,1678,1679,1680,1681,1682,1683,1684,1685,1686,1687,1688,1689,1690,1691,1692,1693,1694,1695,1696,1697,1698,1699,1700,1701,1702,1703,1704,1705,1706,1707,1708,1709,1710,1711,1712,1713,1714,1715,1716,1717,1718,1719,1720,1721,1722,1723,1724,1725,1726,1727,1728,1729,1730,1731,1732,1733,1734,1735,1736,1737,1738,1739,1740,1741,1742,1743,1744,1745,1746,1747,1748,1749,1750,1751,1752,1753,1754,1755,1756,1757,1758,1759,1760,1761,1762,1763,1764,1765,1766,1767,1768,1769,1770,1771,1772,1773,1774,1775,1776,1777,1778,1779,1780,1781,1782,1783,1784,1785,1786,1787,1788,1789,1790,1791,1792,1793,1794,1795,1796,1797,1798,1799,1800,1801,1802,1803,1804,1805,1806,1807,1808,1809,1810,1811,1812,1813,1814,1815,1816,1817,1818,1819,1820,1821,1822,1823,1824,1825,1826,1827,1828,1829,1830,1831,1832,1833,1834,1835,1836,1837,1838,1839,1840,1841,1842,1843,1844,1845,1846,1847,1848,1849,1850,1851,1852,1853,1854,1855,1856,1857,1858,1859,1860,1861,1862,1863,1864,1865,1866,1867,1868,1869,1870,1871,1872,1873,1874,1875,1876,1877,1878,1879,1880,1881,1882,1883,1884,1885,1886,1887,1888,1889,1890,1891,1892,1893,1894,1895,1896,1897,1898,1899,1900,1901,1902,1903,1904,1905,1906,1907,1908,1909,1910,1911,1912,1913,1914,1915,1916,1917,1918,1919,1920,1921,1922,1923,1924,1925,1926,1927,1928,1929,1930,1931,1932,1933,1934,1935,1936,1937,1938,1939,1940,1941,1942,1943,1944,1945,1946,1947,1948,1949,1950,1951,1952,1953,1954,1955,1956,1957,1958,1959,1960,1961,1962,1963,1964,1965,1966,1967,1968,1969,1970,1971,1972,1973,1974,1975,1976,1977,1978,1979,1980,1981,1982,1983,1984,1985,1986,1987,1988,1989,1990,1991,1992,1993,1994,1995,1996,1997,1998,1999,2000,2001,2002,2003,2004,2005,2006,2007,2008,2009,2010,2011,2012,2013,2014,2015,2016,2017,2018,2019,2020,2021,2022,2023,2024,2025,2026,2027,2028,2029,2030,2031,2032,2033,2034,2035,2036,2037,2038,2039,2040,2041,2042,2043,2044,2045,2046,2047
0,0.0001976552,-6.863135e-08,0.00021860542,-0.00024245409,1.035695e-05,1.29843165e-05,2.822965e-05,1.1249542e-05,1.610774e-05,2.9473347e-07,-0.00031017885,-0.00053323095,-0.0002132799,-0.00027566348,7.012731e-07,3.2489428e-05,3.7464636e-06,-8.500481e-07,3.0067145e-06,1.6949578e-05,3.366792e-07,4.8788756e-06,2.559491e-06,1.4122669e-06,1.8794137e-07,2.960115e-06,8.03525e-06,-5.076014e-05,7.1240676e-05,8.12864e-06,1.2076418e-06,0.000100955964,5.0172875e-05,3.072927e-06,3.7143152e-05,-0.00016107966,8.4139265e-06,-2.355434e-08,6.631096e-06,1.4108888e-06,1.9578083e-06,2.1563905e-05,4.5491124e-06,3.5797393e-06,3.7050402e-06,4.180863e-08,6.3436653e-07,1.0512884e-07,2.691892e-06,7.447332e-05,9.658959e-08,4.3228683e-06,3.5736236e-06,-0.0001392588,4.0860957e-07,9.843529e-08,7.6963573e-07,4.8933445e-05,1.5410775e-06,-0.00041909138,1.9875043e-07,-3.6057324e-09,4.4906265e-05,0.00013576828,3.644242e-08,-0.00034547521,-8.1387135e-08,5.26999e-08,-8.801025e-07,1.0342813e-05,-3.6977237e-09,-1.0593919e-07,2.0552416e-05,8.345342e-08,2.7284398e-06,-8.4860886e-08,1.0789865e-05,2.0258744e-08,6.598912e-07,2.7263259e-05,2.67566e-07,-6.927711e-07,6.8933173e-06,9.372655e-05,5.9244885e-06,1.3782891e-06,-9.690641e-09,-8.640991e-07,-6.7890825e-05,-0.00021322104,-1.7962628e-07,-6.8436873e-07,-2.856018e-08,2.664532e-07,4.604031e-07,2.1870317e-05,8.1715785e-07,3.2754502e-05,1.2599754e-06,3.9989704e-06,-6.043131e-07,0.0005865273,-0.00033030502,3.281819e-07,-9.185873e-05,-2.2927004e-08,-7.685876e-05,4.2011212e-07,1.9809735e-07,5.914462e-05,-4.226555e-07,3.6292065e-06,-6.926724e-08,0.0002500365,1.0728864e-05,3.2934706e-05,2.5339683e-05,1.2946504e-05,6.040504e-06,6.554156e-07,3.6088848e-05,-2.6100173e-07,-2.5147855e-08,8.3201375e-09,0.00100545,2.6954493e-07,3.1338945e-07,3.50327e-05,4.5141866e-07,2.2358375e-07,1.0596317e-06,4.4953744e-05,1.9189403e-07,2.712382e-06,4.6831115e-05,-8.799721e-09,-2.2490088e-08,4.207575e-07,3.7317427e-06,1.5178435e-05,3.0117249e-06,-1.2623331e-06,3.1018046e-06,4.4570324e-06,0.0003827134,5.1961892e-06,1.0819374e-05,-0.00021373486,8.2938444e-05,1.3086701e-06,5.3360833e-07,2.903111e-05,2.3941573e-07,3.9166584e-06,0.000103849554,1.1614936e-08,3.4004272e-06,5.0753476e-07,-6.8635096e-08,-3.0749393e-07,-0.00020882204,1.8693405e-06,2.6946173e-06,3.017596e-05,1.2127134e-07,1.3648583e-05,4.726407e-06,0.00011217911,7.157822e-05,4.7805236e-07,3.9129735e-09,-4.536795e-05,9.35351e-07,4.227663e-07,3.2592638e-07,9.060725e-08,2.8015647e-05,2.3345874e-07,8.2797604e-05,1.0524529e-05,1.8223167e-05,7.4487284e-06,7.1494935e-07,-2.1162328e-05,7.228923e-05,7.795949e-08,0.0001959159,1.5462714e-06,2.5325708e-05,-0.00036902787,1.5908734e-05,4.9478643e-07,5.2965747e-06,-2.2287615e-08,6.9693596e-07,1.807968e-05,7.2055074e-05,-8.471809e-05,2.675092e-08,1.3612976e-07,-3.331359e-08,2.5622989e-05,1.8893516e-07,2.5067334e-06,0.0002401292,2.080845e-06,7.732744e-08,-8.9507786e-08,1.5095699e-06,7.851322e-05,4.99464e-05,3.329417e-05,6.96007e-08,2.0788372e-08,9.069076e-07,-3.7922364e-05,-0.00013193102,8.212251e-05,-1.5596274e-07,-4.7108763e-08,7.187529e-08,9.2760686e-08,6.405771e-07,-2.6575316e-07,1.0451514e-06,5.1812555e-07,1.6857219e-05,-0.0001022229,1.7782205e-07,9.18403e-07,6.1450387e-06,3.5488385e-06,-1.4828656e-07,-0.00020905327,1.087883e-08,5.564755e-07,0.0008262982,-0.00026963706,5.3885702e-05,1.9735737e-07,-2.0366273e-05,1.1340799e-05,-6.657834e-08,3.2019543e-05,5.9127822e-05,1.6617198e-05,1.8734174e-07,1.4090967e-05,-7.064798e-05,6.7754786e-06,4.7176943e-07,-0.00064783066,6.676835e-07,4.7487807e-05,6.4543616e-05,2.2881686e-05,7.69457e-05,1.415831e-07,4.50387e-06,2.238427e-07,3.0236617e-07,3.7947535e-07,1.737337e-07,1.0327242e-07,1.2266663e-06,4.070742e-08,3.790739e-07,-9.893781e-09,3.0367335e-07,1.8229231e-06,8.3039975e-09,4.863019e-06,2.8335614e-06,4.6489143e-07,-0.0001557027,2.4220997e-06,5.8841994e-07,2.6733612e-06,2.6372197e-06,2.1087976e-06,-0.00023373039,3.2939863e-06,-0.00015713682,-1.865366e-08,3.7807294e-07,-1.07137026e-07,-1.6965097e-09,2.434958e-07,-5.7066126e-07,2.606421e-06,-0.00013682037,1.064598e-06,9.777981e-07,3.104221e-06,1.3869411e-06,8.321137e-06,3.2582266e-05,5.8158967e-05,-1.4301773e-09,3.6680037e-06,1.7202485e-05,-3.3325538e-05,0.000120445264,2.0739897e-05,2.1575992e-05,-7.346138e-05,-8.411633e-05,7.510037e-05,4.348667e-05,6.300701e-07,0.00012662861,5.969591e-06,-0.0003182991,-8.5559215e-08,0.00012224689,1.0300971e-06,3.2572075e-06,7.949017e-06,4.094831e-07,2.8563936e-06,5.330307e-06,0.000106910025,7.1413975e-05,3.1943497e-08,0.00011396343,-2.2847573e-07,4.1676554e-08,4.407581e-06,3.727254e-06,3.6000413e-06,1.7959694e-06,2.4948483e-06,0.00055742456,6.202201e-05,1.9851224e-07,2.3011553e-06,6.893697e-07,1.9589444e-05,1.44053e-07,2.1594607e-07,7.4961995e-06,2.2361922e-08,3.0171502e-06,2.5826512e-06,2.6466818e-09,4.7771837e-06,4.53497e-08,1.6590478e-07,1.8827527e-07,-0.0001671328,8.914103e-05,6.695574e-05,9.673529e-07,9.165701e-08,-1.2051468e-07,4.0191452e-07,1.4995172e-06,1.6725347e-05,-0.00011622523,8.079318e-07,1.1174008e-06,1.103044e-05,8.683904e-05,1.40892285e-08,2.7782755e-07,3.6554775e-06,3.396168e-08,1.649734e-07,5.7062687e-07,8.433337e-05,1.5610138e-05,2.1586622e-07,-6.528162e-05,5.50288e-06,-9.7491395e-08,-7.3637653e-07,1.3004389e-07,3.0491293e-08,3.999427e-07,3.6283725e-06,-2.6343749e-08,6.5265535e-06,0.00024408192,3.549677e-08,6.938747e-07,-1.5062629e-07,1.6363969e-05,1.9992516e-08,2.923826e-07,-2.661068e-08,1.0822121e-06,1.5808633e-05,-1.1107534e-07,4.320985e-07,2.9576087e-05,7.347657e-06,-0.00010861863,4.7241094e-05,6.272453e-06,0.00028589592,9.056223e-07,1.8228814e-06,2.6940033e-05,1.6599879e-05,-9.322695e-08,-2.0621941e-05,2.1625442e-06,-3.344578e-06,-0.00012043117,1.7005652e-06,5.3938493e-06,9.49537e-07,-6.4775605e-07,3.9549872e-05,1.10669575e-07,3.307164e-06,9.988286e-07,9.405302e-06,-1.4567228e-05,9.531023e-05,4.178308e-06,3.546245e-06,4.596149e-08,3.3126726e-06,1.7066445e-07,0.00012238426,4.9629147e-08,1.4277562e-06,3.8203297e-08,6.325067e-07,5.2350202e-08,3.487262e-06,-6.0918865e-08,3.1682822e-07,6.779442e-05,2.3255652e-06,1.2726905e-07,8.462164e-06,-9.581046e-05,-3.0349676e-07,2.247847e-07,0.00016679589,1.6199301e-05,4.9906043e-07,-9.619018e-07,1.0885871e-05,2.5050977e-07,-1.9866346e-07,4.619764e-05,2.4662622e-12,-4.914936e-09,-4.777727e-08,4.378424e-06,-2.1059881e-07,6.0838033e-06,-7.952486e-05,1.1833798e-07,-3.8045428e-08,-0.00021648886,-4.4732786e-07,4.865853e-05,-9.948969e-09,-6.571684e-08,-0.00017279599,-0.0002734355,1.850459e-06,5.788969e-06,2.822798e-05,-1.701437e-08,6.3601606e-06,3.368282e-07,1.7410591e-06,2.974872e-07,-4.2891912e-05,2.330339e-06,3.2851278e-07,1.5610756e-06,7.601956e-05,-4.4384677e-05,-0.00080010283,1.607031e-05,2.2537247e-06,5.982245e-08,-4.8134297e-08,1.9082045e-05,1.4476482e-05,-7.9395186e-08,8.21795e-05,-1.7579339e-08,-1.642624e-07,-9.553643e-08,6.4271836e-07,-1.8380311e-07,-0.00039731228,1.6999007e-08,1.9477318e-06,7.2911644e-05,9.530651e-08,1.0129254e-06,-3.376032e-08,5.067731e-06,-4.1091528e-07,5.6226204e-06,4.392664e-06,1.5154576e-07,9.174381e-09,3.02814e-06,2.1029801e-07,1.40500115e-05,2.0649018e-07,-9.5758296e-08,-0.00013811175,3.3684522e-05,6.6233565e-06,-9.279143e-05,1.0484446e-05,-3.1889642e-05,-1.8457515e-08,3.103916e-06,-2.2533294e-07,3.823875e-07,7.2375304e-05,1.8783519e-06,-2.685296e-07,3.988617e-07,2.7401958e-08,6.2321504e-07,3.107776e-08,-5.251783e-08,5.275703e-05,6.2701634e-05,2.107012e-06,7.144636e-05,1.0415284e-06,2.1218757e-06,7.0695074e-05,6.466925e-06,3.814868e-06,-7.3159825e-08,1.7282458e-05,2.0819773e-06,1.893074e-07,5.1830077e-05,-6.7498114e-08,-5.0463886e-08,-2.559447e-08,1.1963436e-06,1.7206807e-07,1.0262424e-06,9.049369e-07,1.706947e-06,3.3522025e-05,1.4712034e-06,1.1151866e-06,4.0603813e-05,2.6213288e-06,7.756919e-05,4.5742678e-07,5.268092e-07,1.6833181e-07,-0.00032638066,9.610655e-06,2.4325946e-08,0.00018774571,1.2328636e-07,4.9064765e-06,2.029027e-05,6.868692e-07,6.8022985e-08,2.447918e-07,-0.00035035698,4.4077387e-05,-3.2886743e-05,-1.8697627e-06,-2.193254e-07,-0.00017206832,0.00021845617,0.0014833699,1.8943076e-05,-1.2371541e-07,-0.00012908065,4.4495973e-06,1.2128946e-06,2.3270099e-05,1.387028e-05,4.889825e-05,0.00040123987,1.2908801e-07,1.7805761e-06,3.1787778e-07,7.268099e-07,7.6145436e-05,3.97062e-06,2.3722669e-06,1.4111288e-05,4.704354e-06,-7.717035e-05,2.7398128e-06,1.9523673e-06,4.271281e-09,-8.838518e-05,2.3643609e-06,-1.0583265e-07,0.00014504122,2.4828003e-06,4.6295744e-07,2.8647793e-07,1.7959177e-05,-4.4902063e-05,3.3630445e-07,1.4924746e-05,5.6144494e-05,1.1779194e-06,5.993186e-05,1.21021735e-08,6.325241e-08,-0.00024503947,6.747121e-08,2.9704357e-05,2.3306416e-06,3.0506953e-07,2.3363107e-08,-2.0050217e-07,0.00030763447,-0.00011836169,5.7125235e-06,-6.765095e-05,-9.731484e-08,-5.602689e-05,-4.659342e-05,1.2219824e-05,6.7396063e-06,3.9709985e-06,5.3495548e-08,-0.000342578,-9.462063e-05,9.122403e-05,-6.3688756e-05,-8.189288e-05,-4.4017646e-08,8.672863e-05,3.4998702e-05,1.782657e-05,2.9858384e-08,1.8504214e-07,4.5606492e-07,1.9990969e-07,1.1831286e-06,1.5687614e-07,6.178348e-05,-0.00016034469,1.7855743e-06,2.551723e-06,1.2394415e-05,1.0088152e-06,2.3620189e-05,2.0465844e-05,-0.00020692372,4.6259727e-05,0.0002426241,3.4686497e-07,7.191756e-05,3.745298e-05,5.495762e-06,6.974534e-07,2.8522243e-07,0.0011259991,-3.1229672e-05,-1.2741467e-06,-2.2304622e-08,5.5581216e-07,-0.00016530798,1.6143415e-06,2.8016193e-06,8.732758e-06,0.00014273041,-1.217657e-07,-7.384731e-08,5.4620214e-06,-6.254916e-07,-0.00012211989,4.963757e-07,9.3143135e-05,4.936599e-06,5.364326e-07,-2.252259e-07,-0.00012474577,8.285591e-08,9.600763e-08,1.0532966e-07,2.0780877e-05,1.2299686e-06,-0.00036887074,2.43165e-08,1.122435e-08,6.7758214e-05,3.1275227e-05,2.810677e-06,5.7285374e-06,3.9932232e-07,-0.0002484087,-1.1377552e-06,0.00011081114,1.7180749e-07,-6.8507693e-09,-2.4490708e-05,2.2358063e-05,0.00028392544,1.14155796e-07,1.1250947e-06,6.8695476e-07,1.3149188e-05,5.1428746e-09,1.0634916e-07,0.00020676982,9.412111e-05,6.5443686e-08,4.0408685e-07,2.124333e-06,0.0005498479,-0.0010595426,9.52817e-06,-3.5558653e-05,9.513831e-07,1.3043878e-06,2.0252699e-06,4.228872e-08,-2.2307146e-08,2.446279e-06,1.109558e-06,5.5181325e-05,1.7066772e-05,3.6819474e-05,1.9345462e-06,4.6000263e-05,5.1945767e-06,-0.0003891112,-0.00010489212,1.7075703e-06,5.4697557e-07,-8.270003e-07,2.7076742e-06,0.00034579434,-6.8825007e-06,4.206318e-07,1.1737922e-05,1.0044118e-06,-7.7532356e-08,7.4385736e-07,-0.00016829412,5.579205e-06,1.157708e-06,3.5432527e-06,0.000101319514,-2.5895935e-07,-6.360852e-05,-1.2788773e-06,5.0477684e-07,5.3149693e-06,6.0303887e-07,1.4084433e-08,-9.05263e-05,0.00018146633,2.0526939e-07,2.7906392e-06,1.7904984e-05,4.229123e-07,7.623613e-05,-0.00028637468,3.113499e-06,-3.612853e-08,9.282682e-07,1.5671678e-07,2.044533e-06,6.5219674e-06,-2.0815078e-07,5.391746e-05,1.3182582e-08,3.743059e-07,-6.979922e-07,2.0082689e-05,3.079764e-05,-3.9755722e-07,-2.976722e-07,9.718504e-08,1.2341344e-05,-3.3467565e-08,5.9992954e-07,2.8951425e-07,1.5272453e-06,2.5335457e-06,4.8498915e-08,2.2814664e-05,2.345933e-06,5.9235786e-06,-4.6623533e-08,-0.0003226644,-3.0860235e-06,-5.0938284e-05,1.0221859e-06,2.9261387e-06,-2.6866802e-08,-2.0540001e-05,3.6527453e-08,4.0877752e-05,1.6604218e-07,6.681038e-05,4.794708e-07,3.8268243e-07,3.0708867e-05,-1.10349475e-07,9.723794e-07,9.417818e-09,-0.00015445307,1.3431157e-06,0.00048578836,1.8465846e-05,5.906233e-07,-1.0861494e-07,-6.302375e-05,-0.0001364678,-0.00022931179,4.7594035e-06,-6.709999e-09,0.0015417701,-2.135346e-07,2.782956e-06,4.1348976e-06,0.00015633825,7.5596115e-05,-2.0229224e-07,5.763882e-05,-2.3473751e-07,-0.0002215676,6.327288e-05,4.765761e-08,8.579237e-05,5.965675e-06,1.7542548e-05,2.2772665e-05,-4.707075e-05,6.435191e-08,5.482358e-07,-2.5277376e-07,-1.4716517e-07,-0.0003494673,4.0505446e-07,2.7612904e-07,3.5840485e-06,-1.6403862e-07,2.6194061e-06,1.2562052e-06,-1.0941866e-07,-6.3648007e-09,-1.081247e-08,0.00014337628,5.7596673e-05,-0.00025254893,1.2480049e-05,3.1119719e-06,-7.12295e-08,1.907385e-06,5.0351744e-05,-1.7649609e-07,-3.3007726e-07,5.5262306e-05,-1.4576845e-07,7.914267e-06,-3.1630668e-07,6.809718e-08,8.1391634e-05,4.667081e-09,5.8209414e-05,4.8536116e-05,-1.9017762e-07,5.0378753e-06,6.977706e-05,1.8638278e-07,4.6633453e-05,-4.6523943e-05,4.501136e-06,0.0004322794,9.947951e-05,0.00019906028,-9.6980884e-08,3.0273459e-06,1.2010769e-06,0.00014484639,2.0750288e-06,6.951498e-08,1.727961e-07,-2.2714254e-08,1.5115434e-08,4.365369e-09,-1.8540184e-05,1.3407217e-05,5.8925098e-06,2.2917e-06,-8.2705025e-09,1.6684471e-05,2.9722598e-06,-2.0633311e-07,1.8174278e-07,1.5891403e-07,-2.7595015e-05,5.8043943e-06,3.099962e-08,-1.23668515e-08,5.6610684e-06,6.184046e-05,0.000107775406,-0.00039495877,-6.8056545e-07,4.4038093e-06,5.5323662e-06,3.0529623e-07,-0.00037164052,-0.0001202961,4.128533e-06,-0.00025117488,2.5465267e-06,1.0860733e-07,-4.708262e-09,5.1284157e-08,1.5663657e-06,5.639006e-07,5.513103e-06,5.6015033e-05,9.5184895e-08,-0.00010301171,8.436992e-08,-1.1918332e-07,1.0128176e-06,1.8293319e-07,1.4697625e-06,-0.00053441647,9.378308e-07,4.794991e-05,8.254876e-06,2.9840103e-05,2.2503752e-06,-2.9616626e-07,2.4449455e-06,-0.00015353848,0.00015023901,2.921149e-06,3.488229e-06,1.3816366e-06,8.857591e-07,-5.7665915e-07,8.0814765e-08,9.784547e-06,-0.00012368616,2.5786943e-05,6.7836476e-07,7.2264683e-09,4.630976e-05,-8.617713e-07,-9.678391e-08,1.1032143e-05,5.1409966e-06,1.927621e-06,5.184001e-06,-3.659079e-08,-3.994691e-08,-5.000496e-05,1.6530068e-07,-0.0011649467,4.2314296e-05,1.3447341e-07,-0.00018038781,1.1468849e-06,2.9740667e-07,1.7958323e-06,1.17832776e-07,1.8876115e-07,1.3319641e-05,-0.000101872014,9.136526e-07,3.937083e-07,3.0964181e-06,5.741154e-05,3.3330036e-06,5.4614316e-07,8.256118e-07,1.4591907e-05,5.448184e-07,6.8175755e-06,1.7931275e-07,2.7911918e-07,2.1968428e-06,7.750717e-05,-5.9054862e-08,3.5945027e-07,-5.839262e-07,0.00016892928,-0.00022068135,-2.3020783e-07,5.9872662e-05,-0.00015865234,-7.433516e-05,1.1948863e-06,8.872825e-06,3.1282583e-05,5.60862e-06,2.5616814e-06,2.5658226e-06,1.9428162e-06,1.0090062e-05,-7.637666e-09,-6.20595e-05,9.0266985e-06,6.5125355e-06,1.8102163e-06,-0.00020443086,9.0268975e-07,7.1912227e-06,2.8672678e-06,4.26186e-08,8.2661914e-05,2.510263e-07,-3.0139554e-07,5.752774e-07,7.991421e-08,0.00078977086,8.985051e-06,2.2402932e-07,-2.926397e-07,0.00074286654,1.062947e-05,6.9658466e-07,6.310627e-06,1.00965885e-07,5.504337e-07,2.9089268e-05,-9.06155e-08,3.5498212e-07,2.73172e-06,6.950592e-07,-9.211845e-06,1.2268091e-06,4.3228552e-05,1.4085839e-06,-1.5353242e-05,9.0317593e-07,1.5766065e-05,2.3936233e-05,3.0259916e-06,-2.5363086e-05,-9.607001e-08,1.1662594e-07,-4.772762e-05,7.802211e-05,3.3167888e-07,1.726548e-05,0.00034134742,-1.5953949e-06,2.0503555e-06,-1.1550725e-07,9.7577526e-05,-5.7965164e-05,1.7587846e-06,-6.014174e-08,8.667426e-06,7.434458e-07,1.0591459e-06,-0.00016366123,1.0466881e-05,2.2846907e-06,1.5519901e-05,2.4704018e-06,2.9159446e-07,-0.00026281876,0.00019472683,0.0023413466,6.732686e-05,7.818887e-06,1.2050511e-05,1.1678555e-08,3.0014e-06,3.15694e-06,-0.000596855,-2.2398136e-07,0.00010084043,2.46573e-07,2.4007004e-05,-9.91918e-07,1.1740761e-06,3.4177282e-07,3.306813e-07,3.249683e-06,2.4470871e-06,-1.7504922e-07,7.290778e-08,2.630373e-06,-6.1846166e-08,0.00012435562,8.175717e-08,-1.643059e-08,-2.5130947e-07,1.7353691e-06,6.0415165e-05,-0.00022427649,2.1064148e-05,9.849317e-07,2.1431524e-05,1.3304463e-06,1.4373407e-07,-4.695738e-08,9.897945e-05,-2.092641e-05,-6.390017e-07,-2.6829267e-07,1.22648225e-05,7.4880705e-07,-0.00019620554,8.841239e-05,1.3893031e-06,1.154785e-06,6.5057095e-05,-0.00010375564,1.8967735e-06,4.909069e-06,-0.00027983877,-5.732416e-08,3.2770824e-06,3.778285e-06,-1.3564568e-08,3.0147083e-07,-0.00032921263,-2.874156e-08,1.929799e-06,6.5393106e-06,1.2393544e-06,1.4749663e-06,-7.289053e-08,9.433325e-06,-4.539982e-05,-3.1640008e-07,5.9868235e-06,2.2187476e-05,1.6101666e-07,-0.00019963049,-7.480207e-08,8.535797e-07,2.241414e-08,2.7599428e-06,-3.024091e-08,0.00011437577,1.19032455e-08,9.1378115e-07,4.726169e-06,6.656538e-06,1.7688278e-06,-0.0003618558,-2.9248598e-08,-3.8047475e-07,-1.419118e-08,-2.07563e-08,-1.2969952e-08,3.177763e-07,2.6441134e-07,6.637377e-06,-3.9098015e-08,2.8918274e-05,-0.00029243945,7.400431e-07,1.1655159e-06,6.417576e-05,2.5345486e-07,2.151085e-07,2.8672168e-06,5.1545507e-05,3.4895527e-07,-0.00012630675,3.136552e-08,2.2200284e-07,-7.408922e-07,1.2489235e-06,2.3851724e-06,6.706199e-07,9.991992e-07,-7.4283074e-05,7.5048056e-06,1.483439e-06,1.3875773e-06,3.8769383e-07,-4.1571147e-06,1.9208939e-07,-0.00036585034,3.534818e-05,6.4441397e-06,-1.768934e-07,4.810296e-06,1.0103472e-05,0.0002128784,0.00021398024,4.9111554e-06,9.544298e-07,0.00010225548,-0.000302241,1.1951886e-06,-4.1809293e-05,0.0001560515,2.1934202e-06,0.00019650927,-2.1753446e-07,-5.252711e-09,2.3497774e-05,3.3224014e-06,4.5629457e-07,-8.331687e-05,2.4149682e-07,6.5700806e-05,7.1740875e-09,-0.00020598942,1.1389253e-05,2.292833e-06,-0.000720394,7.4453425e-07,1.6935704e-05,1.7786276e-07,-2.201857e-07,-4.2179656e-07,0.00014329905,-0.0002367908,8.150945e-06,7.606692e-05,-5.919066e-08,2.1986325e-06,8.698548e-07,7.5936414e-06,-1.513363e-07,1.1837767e-06,-4.910527e-05,-8.03507e-06,-3.791361e-05,0.00012094001,5.014605e-07,2.4139654e-06,-2.0582123e-08,1.3434448e-08,1.1210337e-06,1.5335905e-06,2.8437053e-06,1.3505046e-08,-1.7398818e-09,-7.6778335e-05,3.3678457e-06,1.2160889e-05,-6.940302e-08,1.4030671e-06,-3.3073975e-05,-1.6993425e-07,3.8215472e-07,-8.8750116e-05,4.5761008e-05,-0.00013770675,3.0030573e-05,-2.2152992e-07,1.1617413e-05,0.0011010974,1.579535e-07,0.0018690411,-7.9056954e-05,7.1691975e-06,-5.6271515e-06,3.4783618e-06,2.1031288e-05,5.46303e-05,1.8524979e-07,5.4507265e-05,1.3032421e-05,1.5467267e-06,6.96045e-05,1.234112e-06,1.3783119e-06,3.0997093e-05,3.716212e-05,-0.0004506961,2.554551e-05,6.4411724e-05,-4.1638984e-08,-0.00023700357,-2.5370312e-08,-0.0001949502,6.0647903e-06,-9.587345e-08,4.443434e-06,-5.2669842e-05,-5.926916e-08,-0.00012679349,7.352026e-05,-7.4601685e-09,-5.473732e-05,1.2465635e-05,2.5496424e-06,8.846828e-05,5.6437788e-08,-1.942058e-07,2.856586e-08,2.1054448e-05,1.7309025e-05,1.01705375e-07,-2.6274364e-07,6.7892547e-06,6.182012e-05,2.3299374e-06,1.9075378e-06,-0.00013589568,-2.5602208e-07,1.0579881e-07,0.0006545812,6.5326907e-07,-7.1797945e-07,5.747199e-06,-5.8115802e-05,2.5113852e-06,4.613485e-06,1.0708658e-06,1.0587429e-06,-2.420295e-08,6.927699e-08,-1.3178592e-07,-6.5787003e-09,2.3792781e-07,-3.025741e-07,1.7330935e-07,-2.951633e-07,3.0941098e-07,0.00016852695,-4.032139e-07,3.4943862e-06,2.8836638e-07,7.405618e-05,1.9165413e-05,-0.00047672584,-1.3342993e-05,3.530404e-06,1.5493065e-07,-0.000115913324,4.5370527e-07,5.2039886e-05,-3.435307e-08,6.924818e-07,4.4915893e-07,3.5441758e-08,-2.1841649e-07,1.9159653e-07,1.011178e-06,6.875115e-05,8.34343e-07,-0.0003228125,-4.7236263e-08,1.8567944e-06,-6.648914e-07,8.7803267e-07,8.3447034e-05,4.689137e-08,4.9992093e-05,-7.336698e-05,8.0539785e-06,8.199604e-08,-0.00014784357,4.1859785e-08,6.6681633e-07,8.233583e-05,6.968305e-09,2.5009797e-06,1.8896485e-06,2.06157e-07,-2.2781858e-08,2.2828243e-07,1.2122614e-07,-0.00023260244,8.413177e-07,0.00019610244,1.8170289e-05,-2.3149963e-07,4.773831e-06,7.875008e-05,6.9746548e-06,2.1713797e-08,4.09396e-05,8.476866e-06,5.2822073e-05,-1.1836368e-06,8.976518e-07,8.2125705e-05,-7.362863e-07,0.00016756912,-5.133441e-05,-8.350174e-08,3.392755e-07,3.9330953e-06,1.4481302e-05,1.4029582e-07,-6.568464e-08,-3.1346423e-07,2.9763944e-06,-9.794386e-05,6.6625734e-07,-2.5099624e-07,-0.00025130654,9.7315475e-05,-5.7921227e-07,-0.0008642315,2.9731214e-06,1.574159e-06,2.1910053e-05,-1.5154087e-07,-0.00018683476,1.2569787e-06,2.9023442e-06,1.0122864e-06,6.550063e-07,1.2757216e-05,4.5624853e-05,-1.7995862e-07,8.12761e-06,4.2951964e-05,5.3352167e-08,-5.1500702e-08,3.3898672e-05,3.1191306e-07,1.5802103e-05,6.0893024e-07,-6.049054e-05,-4.488272e-07,-0.0003196161,4.3722317e-05,3.976854e-05,4.543976e-05,5.0389335e-06,9.1488524e-05,2.7898616e-07,0.00019756601,-7.4528094e-07,-0.00029531363,1.5047813e-05,2.3667815e-06,-6.454776e-09,2.1316039e-06,1.475935e-06,6.2052465e-07,3.4972275e-06,3.0453593e-05,1.6878317e-07,2.5169658e-07,-1.1449383e-06,4.4907365e-06,5.1391522e-05,-8.640952e-09,5.0956733e-05,1.2499629e-06,2.7693247e-08,7.00619e-06,2.4386107e-05,9.868548e-07,2.6672034e-05,1.3207544e-05,8.640073e-06,7.528715e-05,7.5769412e-06,1.6501467e-07,1.4502428e-05,-2.615877e-07,7.462833e-05,-9.821533e-06,-7.665242e-05,-0.00020142803,4.3712254e-05,2.2132765e-05,8.063415e-06,1.3398555e-06,0.00015521354,7.372958e-06,1.5026184e-07,3.1347237e-05,3.5592886e-06,3.9995816e-06,-0.00029872017,5.2949457e-07,2.9369085e-06,-2.7054788e-05,2.48348e-05,9.4348735e-07,2.7683222e-07,9.3193455e-07,2.8079303e-06,0.00015341419,1.2051943e-05,1.121961e-06,3.4279543e-05,1.2876122e-07,2.7859992e-06,1.4316205e-06,9.742607e-06,-6.865571e-07,8.056443e-05,0.0003021402,-5.280865e-05,-9.954454e-05,1.1989849e-06,-9.4588154e-07,7.0497094e-07,-4.6460846e-06,5.621866e-05,-3.033747e-05,-5.1495352e-08,-3.6951215e-07,5.666653e-05,-2.0236725e-07,2.3106677e-06,-1.0565692e-07,-2.532624e-07,9.301832e-08,-9.91182e-06,9.590085e-05,5.4452146e-05,1.7476958e-06,1.246562e-07,4.439641e-07,-0.00034361304,2.245931e-07,-3.707647e-08,-8.714492e-05,5.3603167e-06,-1.1421958e-07,-1.5650981e-05,1.1297826e-07,1.2706448e-05,5.572683e-06,3.039518e-07,2.2651019e-08,1.245037e-05,-0.0002695967,2.8328843e-08,-3.60215e-08,1.0187982e-06,8.094733e-05,-2.4910069e-06,-1.0180418e-05,5.874067e-07,4.8410362e-05,2.6102691e-06,2.0863965e-06,4.0082097e-07,2.3882326e-06,7.4611467e-06,-3.4675116e-07,1.6929478e-05,5.1907587e-06,-0.000101201294,-0.000575041,0.00020262323,9.097163e-08,7.435792e-08,2.4606904e-06,6.5935815e-08,5.1285093e-07,5.838178e-05,1.1850734e-06,1.5925383e-07,-7.5893105e-08,7.850901e-07,-4.7954683e-05,3.7714595e-05,5.198701e-07,2.061036e-05,-0.000102364946,-5.5856713e-08,3.6502365e-07,5.542185e-07,2.960087e-06,1.432494e-06,-4.886049e-07,-0.00011363142,-1.244499e-07,6.858805e-05,4.6108533e-05,-8.7826076e-05,5.4931024e-05,0.00011984203,1.5242404e-07,1.3038125e-07,2.1563457e-05,-1.5338081e-07,9.153604e-06,-1.5056832e-08,0.00042911514,7.5257035e-06,2.1250687e-08,2.302389e-06,-0.00033058683,2.4011513e-06,8.0155075e-07,4.171583e-06,-0.00015361825,7.6763004e-05,9.71734e-06,9.927795e-08,8.843206e-07,-0.00011655129,3.5945181e-06,1.4552563e-06,4.5981588e-07,3.3536664e-05,1.951419e-05,-0.0002054683,-5.9156474e-07,-0.00051824935,7.572932e-07,-4.675087e-09,-2.6742901e-08,-5.4003717e-08,9.860559e-07,2.6507973e-06,2.2611296e-06,9.950542e-08,4.51701e-06,6.5200884e-06,4.6375153e-06,5.0265302e-05,-0.00030097668,1.0545665e-07,-0.00015489337,7.8228795e-06,7.34146e-06,0.0001389542,-0.00018825653,7.122895e-06,-5.6616873e-08,-1.820589e-05,1.6771928e-08,-0.00017291377,-9.183288e-08,3.1898715e-08,1.1894191e-06,-5.34221e-05,-0.00034408242,3.1918296e-07,-3.948705e-05,2.6376776e-05,-6.825283e-09,6.2406326e-07,1.6843835e-05,3.5220467e-06,7.4813565e-06,2.574884e-08,-2.596867e-08,0.00010228323,-7.435361e-05,-8.427912e-08,2.5167662e-06,7.494542e-07,1.2045466e-07,3.209745e-08,1.6901582e-05,3.957311e-06,1.3376884e-06,-1.5647552e-07,7.879574e-08,-0.00042787593,-8.863676e-05,2.305332e-05,0.00015409001,1.0455627e-08,2.7032622e-05,1.7890485e-06,3.1799173e-06,1.5122197e-06,1.9224658e-06,8.331084e-05,2.4426552e-05,1.8112614e-07,2.331738e-05,3.885366e-06,3.7342164e-05,1.2558395e-06,2.3901123e-06,-4.1008967e-08,2.578673e-06,4.7208104e-08,4.7315414e-05,2.0264602e-06,3.9913693e-06,-0.00035687475,3.2234615e-07,-9.063002e-09,4.842186e-06,-0.00029032482,2.6220587e-05,4.808452e-06,2.7541702e-07,4.5793374e-07,3.9580635e-05,4.381414e-05,0.0017741617,3.1729922e-08,-4.191606e-08,5.4422867e-06,-2.0321178e-07,1.5352297e-06,1.4437685e-05,-1.2090237e-06,-0.00016163233,-0.00025028482,0.00010854132,3.778655e-07,0.00013798522,6.161611e-07,5.9555344e-07,1.1656438e-06,-8.866841e-08,3.0583968e-07,2.7052657e-08,5.0266035e-06,-8.513176e-05,7.33506e-07,6.935939e-05,9.006117e-07,1.7530319e-07,3.980739e-07,1.4285269e-05,-4.3424077e-08,4.0820723e-07,4.2556007e-06,3.6520757e-07,7.2638913e-06,-1.6381603e-07,1.3932117e-07,1.7107577e-06,7.7865385e-05,-0.00030402042,-0.0002667028,-8.522668e-09,2.137915e-07,4.5644983e-06,8.259839e-05,-8.562837e-07,8.9360617e-07,5.2720856e-07,-3.1835907e-07,-3.6979372e-07,3.0912375e-05,-6.335111e-05,-1.317851e-05,3.5740744e-08,7.384227e-05,1.7347149e-05,2.2275337e-07,-0.00010569289,4.8542634e-06,9.945378e-07,2.2659871e-05,-2.3253735e-07,1.25527395e-05,7.97289e-07,1.8733735e-06,2.3407767e-07,-0.00016000547,-6.316763e-07,-0.0001920269,1.7716841e-06,-1.8587646e-07,-9.74021e-05,9.4487916e-07,-1.6799225e-08,-4.8269598e-08,-1.7550691e-07,3.394242e-08,0.00017697553,2.6164025e-07,-3.37064e-08,7.486252e-07,-3.1837857e-07,-0.00023759899,6.400323e-08,-9.585337e-06,0.000114354865,1.8229331e-06,7.076059e-07,1.7502818e-07,4.431446e-06,4.8396737e-07,-6.634414e-08,-5.69287e-07,2.3891243e-06,5.6157936e-05,1.7549313e-06,-0.0006525986,2.5250934e-05,2.9135292e-08,0.00014305452,-3.408495e-05,7.915796e-06,-2.5988369e-05,2.7803866e-05,-2.5615677e-07,4.853664e-06,5.4572658e-05,2.9876706e-08,2.5432403e-06,2.0321338e-06,-0.00021584425,1.9228075e-05,7.981215e-06,8.4644756e-07,9.495046e-07,3.0192587e-07,-3.956784e-09,2.7469397e-07,2.1150859e-06,0.0001625345,6.7105924e-05,-0.00017287784,2.510135e-06,3.006885e-06,7.5906414e-06,2.6809104e-05,6.677181e-07,2.949012e-07,2.4870173e-05,-6.903356e-08,2.528699e-05,-7.568906e-08,-8.6974615e-05,-1.3128482e-07,3.7011685e-07,7.2327805e-07,-3.2238997e-05,3.2637513e-07,7.942508e-06,6.0427323e-05,7.291156e-05,3.453993e-05,0.00034189483,-1.3953859e-07,4.812867e-07,5.259805e-06,1.654485e-07,3.0917232e-05,-1.3020963e-06,-3.2906394e-07,-0.00017153111,-8.053885e-09,2.3715202e-07,-5.8352833e-07,-3.2600637e-05,0.0003790252,8.1012996e-07,3.3944184e-06,2.604262e-06,1.7929428e-07,2.778906e-06,4.7500785e-06,-7.1860406e-08,0.00019873596,-6.367546e-05,1.8814208e-05,0.00045830302,-1.0740702e-05,-4.573947e-08,5.726455e-05,1.03045295e-07,-4.1974877e-07,3.4956733e-07,5.050479e-05,-1.5085521e-07,1.8512316e-07,5.2575633e-06,-1.2958657e-08,1.9024026e-06,2.485416e-07,2.545218e-07,-4.9869763e-05,3.4043292e-06,2.1088015e-06,2.647428e-06,3.828458e-06,-0.00035131452,4.2730328e-08,-5.46278e-07,5.7409943e-07,1.0744138e-05,8.8479566e-05,6.4719816e-06,2.7632498e-07,0.00092846,-8.185677e-05,5.714839e-05,3.1253776e-07,5.8339472e-05,-5.3640104e-08,1.52137845e-05,-0.00014555562,3.526647e-07,0.00016266592,2.042446e-05,1.9452479e-08,-3.3671732e-08,2.141434e-06,-3.9916839e-07,3.0662823e-06,6.182337e-05,6.8219514e-09,-5.8914827e-07,-0.00035102875,6.1666415e-06,2.7630026e-07,1.7041608e-05,2.2936358e-07,4.7817007e-06,0.00013165866,-2.2502e-07,3.2270615e-09,6.1135615e-06,-0.00025726817,-5.4932944e-08,-0.00019237437,2.807369e-09,1.12086935e-08,2.3780523e-05,9.147809e-07,1.0612541e-06,-0.0004909485,2.245136e-06,3.0323528e-07,7.0289707e-07,-1.6979473e-07,3.5123702e-07,-2.9105226e-07,2.7918088e-07,1.5030791e-06,2.8611228e-06,-0.00023954967,-1.18196944e-07,-3.9799363e-07,1.7000085e-06,-9.849772e-08,6.447175e-07,-0.00013549511,1.2606542e-06,1.8342116e-05,0.0005541081,-7.234675e-08,6.956798e-08,-2.5538154e-07,-1.6527547e-07,-6.7274226e-07,1.3899543e-05,1.9003002e-05,-6.277097e-07,1.1063566e-07,7.4321433e-06,-0.00023374519,-3.4012073e-06,-8.59672e-06,0.00010371021,-0.00028001284,9.1143775e-08,-0.00021948875,-4.0936396e-09,-2.1194278e-08,-9.831037e-07,-4.6096666e-08,6.6963157e-06,1.6887593e-07,5.911393e-09,3.8953513e-07,1.8749248e-05,2.2637938e-05,1.3572311e-06,-2.0693598e-07,-1.951216e-08,-1.7433531e-07,-0.00024577754,-7.318569e-05,8.689142e-07,3.916327e-08,3.7396103e-07,1.5639017e-07,-9.296383e-05,1.4816364e-07,3.96893e-06,-0.0001890012,-7.754826e-08,2.575339e-06,1.5061689e-06,4.7035788e-05,8.977283e-07,3.4273856e-07,-0.00038516615,0.00012420941,-0.00024466187,-8.797626e-05,2.9963036e-07,2.0726654e-06,-3.1892623e-07,2.3893645e-06,6.7662054e-06,5.209474e-06,0.00024332586,1.2787907e-06,1.7735307e-07,0.00011219617,1.8547486e-06,-1.6571207e-07,1.3279297e-05,-1.5068593e-07,-0.00032731483,1.315959e-06,4.5032328e-07,-2.568571e-06,7.482862e-05,-0.00010914883,1.4972576e-07,6.0337883e-05,6.392906e-06,8.352e-07,2.2299628e-07,-1.2508643e-07,5.5092907e-05,1.1735296e-08,0.0001852844,-0.00010377663,5.1508414e-05,-3.1893805e-07,4.2787637e-08,-8.3961474e-08,5.7889036e-08,3.116464e-08,1.8044395e-05,2.0739219e-05,6.0685557e-05,1.7292159e-07,3.4046006e-05,1.4288738e-05,1.9818708e-06,5.7603113e-05,-0.00020763144,3.2199514e-06,8.062377e-06,-2.832956e-06,1.7616834e-06,0.0007558248,2.6890066e-06
