,0,1,2,3,4,5,6,7,8,9,10,11,12,13,14,15,16,17,18,19,20,21,22,23,24,25,26,27,28,29,30,31,32,33,34,35,36,37,38,39,40,41,42,43,44,45,46,47,48,49,50,51,52,53,54,55,56,57,58,59,60,61,62,63,64,65,66,67,68,69,70,71,72,73,74,75,76,77,78,79,80,81,82,83,84,85,86,87,88,89,90,91,92,93,94,95,96,97,98,99,100,101,102,103,104,105,106,107,108,109,110,111,112,113,114,115,116,117,118,119,120,121,122,123,124,125,126,127,128,129,130,131,132,133,134,135,136,137,138,139,140,141,142,143,144,145,146,147,148,149,150,151,152,153,154,155,156,157,158,159,160,161,162,163,164,165,166,167,168,169,170,171,172,173,174,175,176,177,178,179,180,181,182,183,184,185,186,187,188,189,190,191,192,193,194,195,196,197,198,199,200,201,202,203,204,205,206,207,208,209,210,211,212,213,214,215,216,217,218,219,220,221,222,223,224,225,226,227,228,229,230,231,232,233,234,235,236,237,238,239,240,241,242,243,244,245,246,247,248,249,250,251,252,253,254,255,256,257,258,259,260,261,262,263,264,265,266,267,268,269,270,271,272,273,274,275,276,277,278,279,280,281,282,283,284,285,286,287,288,289,290,291,292,293,294,295,296,297,298,299,300,301,302,303,304,305,306,307,308,309,310,311,312,313,314,315,316,317,318,319,320,321,322,323,324,325,326,327,328,329,330,331,332,333,334,335,336,337,338,339,340,341,342,343,344,345,346,347,348,349,350,351,352,353,354,355,356,357,358,359,360,361,362,363,364,365,366,367,368,369,370,371,372,373,374,375,376,377,378,379,380,381,382,383,384,385,386,387,388,389,390,391,392,393,394,395,396,397,398,399,400,401,402,403,404,405,406,407,408,409,410,411,412,413,414,415,416,417,418,419,420,421,422,423,424,425,426,427,428,429,430,431,432,433,434,435,436,437,438,439,440,441,442,443,444,445,446,447,448,449,450,451,452,453,454,455,456,457,458,459,460,461,462,463,464,465,466,467,468,469,470,471,472,473,474,475,476,477,478,479,480,481,482,483,484,485,486,487,488,489,490,491,492,493,494,495,496,497,498,499,500,501,502,503,504,505,506,507,508,509,510,511,512,513,514,515,516,517,518,519,520,521,522,523,524,525,526,527,528,529,530,531,532,533,534,535,536,537,538,539,540,541,542,543,544,545,546,547,548,549,550,551,552,553,554,555,556,557,558,559,560,561,562,563,564,565,566,567,568,569,570,571,572,573,574,575,576,577,578,579,580,581,582,583,584,585,586,587,588,589,590,591,592,593,594,595,596,597,598,599,600,601,602,603,604,605,606,607,608,609,610,611,612,613,614,615,616,617,618,619,620,621,622,623,624,625,626,627,628,629,630,631,632,633,634,635,636,637,638,639,640,641,642,643,644,645,646,647,648,649,650,651,652,653,654,655,656,657,658,659,660,661,662,663,664,665,666,667,668,669,670,671,672,673,674,675,676,677,678,679,680,681,682,683,684,685,686,687,688,689,690,691,692,693,694,695,696,697,698,699,700,701,702,703,704,705,706,707,708,709,710,711,712,713,714,715,716,717,718,719,720,721,722,723,724,725,726,727,728,729,730,731,732,733,734,735,736,737,738,739,740,741,742,743,744,745,746,747,748,749,750,751,752,753,754,755,756,757,758,759,760,761,762,763,764,765,766,767,768,769,770,771,772,773,774,775,776,777,778,779,780,781,782,783,784,785,786,787,788,789,790,791,792,793,794,795,796,797,798,799,800,801,802,803,804,805,806,807,808,809,810,811,812,813,814,815,816,817,818,819,820,821,822,823,824,825,826,827,828,829,830,831,832,833,834,835,836,837,838,839,840,841,842,843,844,845,846,847,848,849,850,851,852,853,854,855,856,857,858,859,860,861,862,863,864,865,866,867,868,869,870,871,872,873,874,875,876,877,878,879,880,881,882,883,884,885,886,887,888,889,890,891,892,893,894,895,896,897,898,899,900,901,902,903,904,905,906,907,908,909,910,911,912,913,914,915,916,917,918,919,920,921,922,923,924,925,926,927,928,929,930,931,932,933,934,935,936,937,938,939,940,941,942,943,944,945,946,947,948,949,950,951,952,953,954,955,956,957,958,959,960,961,962,963,964,965,966,967,968,969,970,971,972,973,974,975,976,977,978,979,980,981,982,983,984,985,986,987,988,989,990,991,992,993,994,995,996,997,998,999,1000,1001,1002,1003,1004,1005,1006,1007,1008,1009,1010,1011,1012,1013,1014,1015,1016,1017,1018,1019,1020,1021,1022,1023,1024,1025,1026,1027,1028,1029,1030,1031,1032,1033,1034,1035,1036,1037,1038,1039,1040,1041,1042,1043,1044,1045,1046,1047,1048,1049,1050,1051,1052,1053,1054,1055,1056,1057,1058,1059,1060,1061,1062,1063,1064,1065,1066,1067,1068,1069,1070,1071,1072,1073,1074,1075,1076,1077,1078,1079,1080,1081,1082,1083,1084,1085,1086,1087,1088,1089,1090,1091,1092,1093,1094,1095,1096,1097,1098,1099,1100,1101,1102,1103,1104,1105,1106,1107,1108,1109,1110,1111,1112,1113,1114,1115,1116,1117,1118,1119,1120,1121,1122,1123,1124,1125,1126,1127,1128,1129,1130,1131,1132,1133,1134,1135,1136,1137,1138,1139,1140,1141,1142,1143,1144,1145,1146,1147,1148,1149,1150,1151,1152,1153,1154,1155,1156,1157,1158,1159,1160,1161,1162,1163,1164,1165,1166,1167,1168,1169,1170,1171,1172,1173,1174,1175,1176,1177,1178,1179,1180,1181,1182,1183,1184,1185,1186,1187,1188,1189,1190,1191,1192,1193,1194,1195,1196,1197,1198,1199,1200,1201,1202,1203,1204,1205,1206,1207,1208,1209,1210,1211,1212,1213,1214,1215,1216,1217,1218,1219,1220,1221,1222,1223,1224,1225,1226,1227,1228,1229,1230,1231,1232,1233,1234,1235,1236,1237,1238,1239,1240,1241,1242,1243,1244,1245,1246,1247,1248,1249,1250,1251,1252,1253,1254,1255,1256,1257,1258,1259,1260,1261,1262,1263,1264,1265,1266,1267,1268,1269,1270,1271,1272,1273,1274,1275,1276,1277,1278,1279,1280,1281,1282,1283,1284,1285,1286,1287,1288,1289,1290,1291,1292,1293,1294,1295,1296,1297,1298,1299,1300,1301,1302,1303,1304,1305,1306,1307,1308,1309,1310,1311,1312,1313,1314,1315,1316,1317,1318,1319,1320,1321,1322,1323,1324,1325,1326,1327,1328,1329,1330,1331,1332,1333,1334,1335,1336,1337,1338,1339,1340,1341,1342,1343,1344,1345,1346,1347,1348,1349,1350,1351,1352,1353,1354,1355,1356,1357,1358,1359,1360,1361,1362,1363,1364,1365,1366,1367,1368,1369,1370,1371,1372,1373,1374,1375,1376,1377,1378,1379,1380,1381,1382,1383,1384,1385,1386,1387,1388,1389,1390,1391,1392,1393,1394,1395,1396,1397,1398,1399,1400,1401,1402,1403,1404,1405,1406,1407,1408,1409,1410,1411,1412,1413,1414,1415,1416,1417,1418,1419,1420,1421,1422,1423,1424,1425,1426,1427,1428,1429,1430,1431,1432,1433,1434,1435,1436,1437,1438,1439,1440,1441,1442,1443,1444,1445,1446,1447,1448,1449,1450,1451,1452,1453,1454,1455,1456,1457,1458,1459,1460,1461,1462,1463,1464,1465,1466,1467,1468,1469,1470,1471,1472,1473,1474,1475,1476,1477,1478,1479,1480,1481,1482,1483,1484,1485,1486,1487,1488,1489,1490,1491,1492,1493,1494,1495,1496,1497,1498,1499,1500,1501,1502,1503,1504,1505,1506,1507,1508,1509,1510,1511,1512,1513,1514,1515,1516,1517,1518,1519,1520,1521,1522,1523,1524,1525,1526,1527,1528,1529,1530,1531,1532,1533,1534,1535,1536,1537,1538,1539,1540,1541,1542,1543,1544,1545,1546,1547,1548,1549,1550,1551,1552,1553,1554,1555,1556,1557,1558,1559,1560,1561,1562,1563,1564,1565,1566,1567,1568,1569,1570,1571,1572,1573,1574,1575,1576,1577,1578,1579,1580,1581,1582,1583,1584,1585,1586,1587,1588,1589,1590,1591,1592,1593,1594,1595,1596,1597,1598,1599,1600,1601,1602,1603,1604,1605,1606,1607,1608,1609,1610,1611,1612,1613,1614,1615,1616,1617,1618,1619,1620,1621,1622,1623,1624,1625,1626,1627,1628,1629,1630,1631,1632,1633,1634,1635,1636,1637,1638,1639,1640,1641,1642,1643,1644,1645,1646,1647,1648,1649,1650,1651,1652,1653,1654,1655,1656,1657,1658,1659,1660,1661,1662,1663,1664,1665,1666,1667,1668,1669,1670,1671,1672,1673,1674,1675,1676,1677,1678,1679,1680,1681,1682,1683,1684,1685,1686,1687,1688,1689,1690,1691,1692,1693,1694,1695,1696,1697,1698,1699,1700,1701,1702,1703,1704,1705,1706,1707,1708,1709,1710,1711,1712,1713,1714,1715,1716,1717,1718,1719,1720,1721,1722,1723,1724,1725,1726,1727,1728,1729,1730,1731,1732,1733,1734,1735,1736,1737,1738,1739,1740,1741,1742,1743,1744,1745,1746,1747,1748,1749,1750,1751,1752,1753,1754,1755,1756,1757,1758,1759,1760,1761,1762,1763,1764,1765,1766,1767,1768,1769,1770,1771,1772,1773,1774,1775,1776,1777,1778,1779,1780,1781,1782,1783,1784,1785,1786,1787,1788,1789,1790,1791,1792,1793,1794,1795,1796,1797,1798,1799,1800,1801,1802,1803,1804,1805,1806,1807,1808,1809,1810,1811,1812,1813,1814,1815,1816,1817,1818,1819,1820,1821,1822,1823,1824,1825,1826,1827,1828,1829,1830,1831,1832,1833,1834,1835,1836,1837,1838,1839,1840,1841,1842,1843,1844,1845,1846,1847,1848,1849,1850,1851,1852,1853,1854,1855,1856,1857,1858,1859,1860,1861,1862,1863,1864,1865,1866,1867,1868,1869,1870,1871,1872,1873,1874,1875,1876,1877,1878,1879,1880,1881,1882,1883,1884,1885,1886,1887,1888,1889,1890,1891,1892,1893,1894,1895,1896,1897,1898,1899,1900,1901,1902,1903,1904,1905,1906,1907,1908,1909,1910,1911,1912,1913,1914,1915,1916,1917,1918,1919,1920,1921,1922,1923,1924,1925,1926,1927,1928,1929,1930,1931,1932,1933,1934,1935,1936,1937,1938,1939,1940,1941,1942,1943,1944,1945,1946,1947,1948,1949,1950,1951,1952,1953,1954,1955,1956,1957,1958,1959,1960,1961,1962,1963,1964,1965,1966,1967,1968,1969,1970,1971,1972,1973,1974,1975,1976,1977,1978,1979,1980,1981,1982,1983,1984,1985,1986,1987,1988,1989,1990,1991,1992,1993,1994,1995,1996,1997,1998,1999,2000,2001,2002,2003,2004,2005,2006,2007,2008,2009,2010,2011,2012,2013,2014,2015,2016,2017,2018,2019,2020,2021,2022,2023,2024,2025,2026,2027,2028,2029,2030,2031,2032,2033,2034,2035,2036,2037,2038,2039,2040,2041,2042,2043,2044,2045,2046,2047
0,-0.00038882237,5.5574572e-05,-0.0015054478,-0.0005070171,-0.00019242331,0.0016446074,-0.00030168268,0.00071093475,0.0005169367,-0.00014694988,-0.00013431697,0.00022116142,0.00046536978,0.00023492197,5.4639033e-05,-0.00024455352,-0.0004615421,-0.0010639778,-0.0006670531,-0.0001791517,0.00053092366,-0.00088120997,-0.0002506571,-0.00029016426,-2.543969e-07,0.000107974345,-0.001244717,-0.0003765027,0.00050283957,-0.0006810486,-0.00081062404,-8.4126776e-05,-9.8456374e-05,-0.0010843045,-0.00021112639,-0.0012129623,-0.00048806713,-0.00026587368,-0.00080629165,-0.0007084684,0.0004758204,0.00040002557,-0.00031885385,0.00048121216,0.00017371256,-0.0013654374,-0.001853246,0.00015685886,-4.6404493e-05,0.00014529866,0.000184984,0.00037841988,0.00012908356,9.1399816e-05,-0.0009533669,-0.0002388813,0.00010360082,-0.0013898578,-0.00047617604,0.000111057605,0.00043140398,4.17014e-05,0.0002453072,-0.00039254164,-0.0014411286,0.00013162954,8.579278e-05,-0.0013314189,1.5125457e-05,-0.000811696,0.00027732292,-0.00030419714,0.00033328583,-0.0006061003,0.00026243215,-0.00042921526,-0.000613049,-0.0012504585,-0.00033136242,0.00025978693,0.00025524222,0.00037457809,-0.000259502,-0.0015859853,-8.117984e-05,-0.0006540509,-0.00057238794,-0.00034081322,7.749241e-05,-0.00074223615,-0.0007128689,0.0003473321,-9.640835e-05,-0.000270469,-0.00031482812,5.901732e-06,-0.0005029417,-0.0005875122,0.0002960718,-0.0016082805,-0.0016467812,-3.788646e-05,-0.0004284538,0.0006187156,-0.0007892328,-4.0954834e-05,-0.0002721849,-7.589339e-05,-0.0005086556,-0.00061970565,-8.723363e-05,-0.00025333973,0.00040531214,0.0005839934,-0.0007278249,-0.0007349248,-0.0003538382,0.00035867654,-0.00048704713,0.00030132345,-0.00015547131,0.0005876555,-0.0012934118,-0.0011294191,-0.00044606396,-0.00024123961,-0.001202168,0.0006866481,-0.00062926795,-0.00023946252,-0.00011739391,0.00027246197,-0.0006043007,-0.0010153963,9.096203e-05,0.0012421391,-0.0002788928,-0.00037640895,0.00019733152,0.00023858089,0.00047912443,0.0006570809,-0.00025097615,0.000102763945,-0.00030418343,0.00036889297,-0.0011538278,-0.00015690291,-0.00033023098,-0.0006354384,0.00019295128,-0.0012400164,0.0011570561,0.001687022,0.0010392128,0.0003743355,-0.0017125007,-0.0002614492,0.0006651524,-0.00021868107,-0.00050537975,-0.00071738026,0.00040302222,-0.0003270845,0.0010159379,-8.391199e-05,9.6786694e-05,0.001364306,0.00043975655,0.00029857506,-9.33359e-06,-0.0002262098,-6.122126e-05,0.0004986964,-0.00026673573,0.00038700335,5.8167043e-05,-0.00071882375,-0.0011976124,0.00011369129,-0.00037562437,-0.00084566546,-0.0005319064,-0.0005434728,-2.4150522e-05,0.0013949816,-0.00011159084,3.882903e-05,3.3089145e-05,-0.00039874323,0.00093514286,0.0004208282,0.0004335287,0.00046591286,-0.00097314076,0.00033014166,-0.00024529072,-0.0006635397,0.00077952375,-0.0011803921,0.00023221209,-7.500901e-05,-5.356629e-05,0.00023061044,0.0010799877,0.00089966663,0.0011579535,1.7383078e-05,0.00018773008,-0.0005176015,0.00023526256,-0.00024283766,-0.00095255685,-0.0005243842,-5.853981e-05,-0.0016440414,0.0001822449,0.00020631065,-0.0002696305,-0.00016067791,-5.9763162e-05,-0.00088414754,0.00034498292,-0.0013412593,-0.0005629574,-0.00015448393,0.00037471892,0.00020030593,-0.00054040627,-0.00032058373,6.5004366e-05,-0.0055812006,0.0013542889,-0.0005237915,-0.00012092418,0.00026753207,-0.00027362813,-0.00031906812,-0.0007065448,5.1516374e-05,-0.0005190663,-0.0027964767,0.0006709683,-4.7971196e-05,-0.00049316644,-0.0006999357,-0.00095740485,-0.00015019262,-0.0011692285,-0.0010981666,-0.00018923884,0.0003782999,0.0005900538,-2.2053193e-05,0.00064472965,0.0008839318,0.00015869681,-0.0008633039,-0.0021100692,0.0004759333,-0.0003043253,-0.000106422965,-0.0002964006,-8.187098e-05,-0.00052209385,0.00019675828,0.0008032656,0.0003435127,-0.00022902376,-0.0010842007,-0.000357479,0.00081789034,-0.00013351985,0.0012219021,-0.001470508,-5.2286236e-05,-6.90637e-05,-0.0014947766,-0.0051762885,0.00044498267,-0.00047792617,0.00011515705,0.00034222647,-0.0001615071,-0.0004532788,0.00015303216,0.00020410836,-0.0001664714,-0.00092597184,-0.00058829837,0.00010646584,-9.614426e-05,0.00032779126,2.323076e-05,-0.0009089962,5.1178613e-05,-6.8034205e-05,-0.00046183137,0.0006532444,-0.00079726457,-0.000456309,0.00027782036,0.0008323362,0.0005976537,0.000409379,-0.00051401026,-0.00023459502,0.00012082891,-0.00037699472,-0.0013975695,0.0005093487,-0.0004388009,-0.00043027604,-0.00016918678,-0.0009204767,-0.00062078104,-0.0008218815,-0.00028208626,3.6816233e-05,-0.00033568023,-0.00013391722,0.00035719853,0.00074053154,0.00024811825,-0.00038953472,0.00042310564,-0.0008908419,-0.00063276436,-0.00070900394,0.00035928396,-0.0016316657,-0.0006864922,9.609927e-05,0.00035007633,-6.671126e-05,0.00054211577,0.0005746561,-0.00078214915,-0.0008407961,0.00013846438,-0.0010718404,0.0002727376,0.00018057959,-0.00046324474,0.0008337227,-0.0003227752,0.00034733076,0.00072465575,-0.00050329487,-0.0003461441,-0.00054262363,0.00044300855,-0.000569658,-0.0008635467,0.00052141014,-0.0012086084,0.0007112454,-7.3297066e-05,-0.0005868735,-0.005028861,-0.00046947887,0.000107871,-0.0009969451,-0.00085533655,-0.0005737915,0.00042587012,2.906831e-05,-0.0003977981,0.00019049124,-0.00028857827,-0.00073060574,0.0012300941,0.00045041562,5.0976174e-05,-0.00026539096,0.00023510799,-0.0008517233,-0.0008200683,0.0006896143,-0.00025950052,-0.00071916636,-0.0006512617,-0.0009561962,-0.0001596324,-7.363959e-05,-0.00014540328,1.3296066e-05,3.922014e-05,-0.0002597616,0.00035688566,0.00046556164,-0.000797685,5.2721112e-05,-0.0008244466,0.0015921252,0.0012178659,-1.581684e-05,0.0002903105,0.00076187094,6.1268474e-06,0.0005501402,-0.0013856757,0.00035667082,-0.00019362326,-0.00056949834,-0.00038839882,-8.503107e-05,0.00048111996,9.392037e-05,-0.00024056384,-0.00023521154,-0.00031596818,0.0006071832,-0.0004628499,-0.00067872554,0.00030102517,-7.91513e-05,-9.001997e-05,-0.00011032115,-0.0007125348,6.7962195e-05,-0.00017269225,-0.0011647014,0.00046697003,-0.00014460116,-0.0007951792,-0.00037972812,-5.4994343e-06,0.0005956717,0.00039961294,-0.0006273675,-0.001068895,0.0012822859,0.00090439233,0.0005493888,-8.67061e-05,-0.00029592984,0.00021432585,-0.00032169756,-0.0007271584,-0.0002301888,5.646296e-05,-0.00072795723,4.3947104e-05,0.00023286387,0.0002612216,-0.0006990589,-0.0006916125,-0.0004576405,-3.883361e-05,-0.0011135796,-0.00010958468,-0.000584014,0.0004130085,-0.00042992854,-0.0003309415,-0.00028860345,-0.00039454928,-0.0008125118,-0.0011338393,-0.0005531571,-0.0007320867,-0.0002275994,-0.00088465225,0.0015441217,-0.00046020022,-0.00036645986,-0.0015255475,-0.00048568685,-2.9425119e-06,-0.0006502146,-0.000504634,4.2237738e-05,-9.37663e-05,-0.00042699932,0.0009931416,-0.0023321153,3.4028617e-05,-0.00052864745,-0.00049816206,-0.00051301264,3.8256002e-07,0.00037888778,-0.0015199835,-0.00030483454,-0.002103668,-0.00088040915,0.0007480177,-0.00019407015,-0.00073679397,-0.00030701343,-0.00013001838,0.0008319041,-0.000555425,0.0003566184,-2.1840006e-05,-3.1321924e-05,-0.00020530251,0.00017610753,5.5435585e-06,0.0007542508,-0.00014632034,-0.00018980318,-0.0005798747,-0.0010785379,0.00019210909,-9.555505e-05,0.00012357517,-0.0007005808,8.991216e-05,1.2072656e-05,0.0017184076,-0.00070119224,-0.00073501555,4.2861393e-06,-0.00031431604,8.500215e-05,-0.001319562,0.00018107878,-0.0011005908,-0.00019276807,-0.00022214951,-0.00079411775,0.0006770412,0.00028776075,-0.00021280067,8.672437e-05,-8.2598155e-05,0.00024622848,0.0002736382,-6.648372e-05,0.0018828934,0.00015721295,-0.00010718535,0.00029940528,3.7961432e-05,-9.5660514e-05,0.00013369939,-0.00096911675,-4.7536763e-05,-0.0001875449,8.126682e-05,-0.0011563827,2.753145e-07,3.1218668e-05,-0.00019185609,-0.0009180197,0.0013684724,0.0003084073,0.00042474866,-0.00045003573,-0.00042801746,0.00053992163,-0.00042624847,0.00079268834,2.5810818e-05,0.00022411539,-3.3754783e-05,0.00073689496,-0.00094648375,0.00044370006,-0.0003352287,0.0007378718,-0.00028296874,0.00029452847,-0.0009478122,-0.0006371845,0.0011812184,-0.0012509048,-0.0004343882,0.00015743908,-0.00064155593,-0.00032914305,9.43465e-05,0.0003586301,-9.632211e-05,0.0007743857,0.00066429045,-0.00050319365,-0.00047798982,0.0011435561,-8.752323e-05,-0.0012021363,-0.00017076211,0.00014433278,-0.0018341225,0.00024440727,0.0010519694,0.00043972384,-0.00032547352,0.0024232208,0.00047680072,-0.00075575605,-0.003011313,0.0012232243,-0.0008416334,-0.00043330766,0.0002170508,-0.00026229548,3.0984693e-06,-0.00030088433,0.00048344076,0.00036121166,0.0009976707,-1.9876123e-05,-3.1630447e-05,-0.00050425006,0.00069556513,0.0002743453,-5.115945e-05,0.00011861025,0.00048574235,7.8399076e-05,-0.00011466611,0.0006036374,0.0025166296,-0.00049190805,0.00024471025,-0.0007245539,-0.001104232,-0.00031292072,-0.0006398958,8.688331e-05,0.00028608763,-0.0005515193,0.00096993265,-8.11038e-05,-0.0005519863,0.00021742524,0.0035888606,-0.00062383316,-0.0009273809,-0.0001959841,4.2663356e-05,-0.00021243142,0.00012961967,-0.0009906384,-0.00010346386,-0.00081488624,-0.0019717698,0.0003494426,7.347385e-05,-0.0006676989,0.0004544843,-0.00040703767,-0.0003241288,-0.00024772904,-0.00020710808,-0.00036192648,0.0005680241,-0.0002691589,0.00032229355,0.0010120911,0.00041063994,-0.0014007301,-3.1867712e-05,-0.0027499516,0.0015234585,0.00037829875,-1.3938966e-05,0.00011774528,-0.00034797512,-0.00010711577,-0.00023370767,0.0005046414,0.0010004599,-0.001020842,-0.0006719756,0.0003324683,0.00038882656,0.00067273056,0.00074516895,-0.0003886667,-0.0003688348,-0.0010474499,-0.0027608909,0.0003766801,-0.00032844322,0.000643168,-0.0010456078,0.0009243473,0.0022327902,-0.0005018516,0.00075654004,0.0001302579,-0.000808253,-0.0005215869,-0.0005704136,0.00015363825,-0.0005754303,-0.00028266458,0.00054692157,0.00024454136,6.9395464e-05,0.00022837838,9.0967005e-05,0.00033016538,-0.0013845272,0.00018308843,0.00049912144,-0.0011532321,-0.00028892382,0.00025942456,-0.00043281075,-0.0014076935,0.00030219601,-0.0003865735,-0.0008878353,-0.00027537264,0.00024961942,-0.0018078726,-0.0004182698,0.0006352409,0.00052748004,-0.000699017,0.0005516263,-1.6100617e-05,0.000563565,-0.00042711647,-0.0005456317,-0.00025878515,-0.0008038293,-0.00032881415,0.00047160758,0.00024620775,0.0009974843,-0.00017208284,-0.00046980093,0.0007477604,-0.00072798633,0.000113758215,0.0011515634,0.00016362747,-0.0007684338,7.0670844e-06,-0.0011500168,0.0007399465,-0.00076233386,-0.00047946203,0.00036485135,-0.0005098421,0.0005764107,0.00011760178,-0.0004622725,-0.0014315911,-0.0004799966,0.00041667902,-4.7020945e-05,0.000996601,-0.0005782885,-0.0011676758,9.968608e-05,-9.723917e-05,-0.00016158182,-0.0008762183,-0.0006625298,-0.00049845903,-1.3409767e-05,-0.0004466344,-0.00036070566,-0.00067529466,0.0014021128,0.00034630203,0.0002620897,0.0008512456,-0.0003378214,-0.00049339415,0.00037164046,-0.00058691786,5.0971677e-05,-0.0005037411,-0.00037853836,-0.00058916636,-0.00012828734,-0.0008300832,0.00014182653,-0.00010172523,-0.0009167787,-0.0007835132,-6.18387e-05,-0.00043988772,-0.00045460789,3.5672416e-05,-0.00066304684,-0.0006730883,-0.00014891515,6.882825e-05,1.3737395e-05,-0.0004449032,0.00038640152,-3.3376695e-05,-0.0006898605,0.0003960894,-0.0009863235,-0.00023829582,-0.00084085786,-0.0011528598,0.00020729352,-0.00015021228,1.1081102e-05,-0.00035215297,0.00065966963,0.00034297444,0.00050853554,0.00015326955,-3.5824178e-05,-0.0001918203,4.1462677e-05,-0.00031827905,-0.00015693271,4.8118774e-05,-3.3973563e-06,0.0006894881,0.00022633089,0.00014968493,-0.00066096464,9.977265e-06,-8.632457e-05,-0.0006796971,-0.0012545657,-0.00028531605,0.0007091138,-0.0011560048,-0.0001740502,0.00055628276,-6.8375666e-05,0.00076674885,-0.00082881976,-0.00039075888,0.001978863,-0.00028082027,0.0014417344,-0.0025710391,0.0012189875,-0.0002312577,0.00025149854,0.00054579804,0.0018491793,-9.705783e-05,0.00032578444,-0.0001552468,-0.00089081743,0.00052391633,0.00060937816,-0.0006040438,0.00018847229,-0.0002966634,-0.00033453,-0.00088773115,-0.00014514307,0.00010228386,0.00034514884,0.00018014359,9.010823e-05,-0.0017709264,7.8762525e-05,-0.0008762453,-0.0011884912,0.0006468727,-0.0017089786,-0.0007798955,-0.00024559614,-0.0003805612,0.00053696823,-4.7109763e-05,7.2275466e-06,0.00017195221,-0.0006592676,0.0011019438,0.0011810253,-0.000758541,-0.0012841928,0.0007937775,8.9359535e-05,-0.0006125769,-0.0005442432,-0.0016989688,-0.00010910207,-0.0012394597,-0.00067986216,-7.809357e-05,0.00055787613,-0.00040418882,0.00032262286,-0.0010825497,0.0018962966,-0.00060054613,-0.00023586887,0.0008551403,0.0010902059,-0.00042249373,0.00028619272,0.0011986721,-0.00030433902,-7.435751e-05,-0.0006521654,-0.0012145822,-0.0011995513,-0.00056328025,-0.0009543229,4.9508046e-05,-9.5040086e-05,0.0008376257,-0.0006788017,-7.7714394e-05,-0.0005928609,-7.028142e-05,5.9931877e-05,-0.00026524038,0.00024066285,0.00017076347,7.858941e-05,0.00036222476,0.00046822926,-0.0004432469,0.00035556013,0.00017275935,2.183162e-05,0.0002461553,-0.00061339804,0.00027429417,-0.00026569157,-0.0007881828,0.00042290371,2.5710458e-05,0.00043824041,-0.00095073774,0.00020427347,0.00049282983,-0.0002755718,0.00036834512,-2.1908361e-05,-0.00096438825,-0.0005133809,0.000111749236,-0.000975086,0.00015512931,0.00024624995,-0.0006527798,0.00041148008,0.0007140204,-0.00036625855,3.9586052e-06,-0.0017559305,0.0006526807,-8.111543e-05,-0.0009859664,-0.00022352426,-0.00029460646,-0.0014824263,-0.00028264185,0.0011898858,-0.0005158129,1.5745645e-06,0.0003922077,0.00050736335,-9.86164e-05,0.00017754131,-0.0003039431,-0.0016641808,-0.00052250666,0.0005827263,-0.00017528611,-0.00014065039,0.0008697049,-0.0006530197,-0.0022060475,0.00028200352,-0.000100662255,-0.0004807958,-3.027549e-05,0.00019176018,0.00029420177,-0.0011063374,-0.0006505907,-7.4177435e-05,0.0002446044,0.0008283339,0.00024957946,0.00015117742,-0.0010940005,-0.00023045515,-0.003519367,-0.0007792187,-2.0906034e-05,-0.0009718264,0.00021912901,0.00011783377,4.17705e-06,-0.00031103878,0.00054102356,-0.0012649957,-0.00063003256,0.0014567202,0.00012665255,-0.0012331525,1.5520216e-05,0.00060708716,0.00013716385,4.5601668e-05,-0.00031694912,-0.000951185,-0.002187443,-0.0004895677,0.0001853026,0.0002019972,-0.00043885567,-0.00043735292,-0.00094546063,0.00016410217,-1.995752e-06,-0.0001472346,6.367154e-05,-0.00035440753,0.00016900885,-0.00068346324,-0.00037423288,-0.00040122803,-0.00026392835,-4.5725905e-05,-0.00020834591,0.0021706072,-0.00041570954,-0.00040113574,0.0008310749,0.000268425,-0.0013311649,0.00083617045,0.00013921715,0.0002878795,0.00091583555,-0.0020079284,-0.0021017494,0.0003370028,0.0012108223,-0.00076293177,0.0010891161,-0.00025637943,-0.0007689122,2.1150996e-05,0.00043212276,0.00040302234,0.00037577882,0.00052719365,-0.00020976465,-0.0004884421,-0.00084772205,-0.00068732275,-0.00044614394,0.00085699564,-0.0004863251,5.3447773e-05,0.00015433607,-0.00055863213,-0.0009328568,0.00041741537,0.00021927916,-0.00045548505,-0.0004959323,-0.0015684181,-0.00024570565,0.000108579065,-0.0004029146,-0.00045159776,-0.0007662355,0.00030864464,-0.00083186175,0.0010152961,-0.0010475974,-0.0009355378,0.00042665272,-0.00017583388,-0.00025451332,-5.265458e-05,0.00036767925,-0.00066632865,-0.0008362946,-0.000518813,0.00016000231,-0.00017992586,-0.00035410863,-0.00073411746,-0.00030773808,6.6274486e-05,-0.00037217376,-0.00049296784,0.00043416637,0.0005671596,-0.0001514772,0.0016450832,0.00089904794,-0.00044617936,-0.00035654588,0.0004585239,-0.0002647133,0.00037084759,-4.8766524e-05,-0.0015517876,-0.0010019938,0.0002932514,-0.00059118425,0.0011438808,-0.0010034005,-0.00014301554,5.119156e-05,-1.204353e-05,0.00011761816,-0.0034251935,0.00015027307,0.00016614853,-0.00025322527,-0.00093884027,-0.0004225254,-0.0008631011,0.0003358315,0.00033329055,-0.0007405942,-6.144286e-05,-0.0004982992,-5.672085e-05,-0.0017086738,-0.00016345676,0.00012781177,-0.00013533242,6.639129e-05,-0.0025842842,0.00031327872,-3.1757507e-05,0.00081575924,-0.00035371815,0.0005096999,-0.000767485,-0.00011959406,2.7693712e-05,-0.00028957214,-0.0013828975,0.0007184754,-0.0008105401,-0.0009862011,-0.00014542705,8.724227e-05,0.0008009197,-0.00030003404,-0.0008014898,0.0001030015,-0.000928509,-0.0005930148,-0.0008051563,0.0007519402,0.00022967246,-0.00015503104,-0.00042389764,-0.002233001,-0.0008145107,-0.00027257478,-0.00040100416,-0.0009348103,0.00010748566,-0.00068431644,-0.00026948287,7.9315585e-05,-0.000245086,0.0007209841,0.00044548375,-0.00017826994,0.0004774057,0.00078046764,0.0005032257,-0.00014894303,-0.00084356376,5.76597e-05,0.0004378974,-5.4416683e-05,-5.9776066e-05,0.00037806874,-7.387338e-05,-0.003129448,5.7800586e-05,-0.00048670216,-0.00019322408,0.00017798616,-0.0004942059,-0.0010414555,-0.00078829745,-0.0006745628,0.0005961961,-0.00022945274,-0.0007933955,-0.00076821004,-0.00088407367,-7.86054e-05,0.00026690497,-0.0009672375,-0.00116011,-0.00043103905,0.00070749555,0.000699933,-0.0011842351,-0.0010744644,0.00023007493,-0.0008323585,-0.0008388405,-0.00030211895,0.0016321071,0.00049271097,0.0006311615,5.2720494e-05,-0.00058727944,-0.0020906,-0.00013127908,-0.00013067597,-0.0005738849,0.00045532046,8.166417e-05,0.00014874956,-0.0009778411,3.5891924e-05,-0.0002305958,-0.0004044129,-0.0016894261,-0.0001307785,-0.0009265255,-0.00048408768,0.00041733804,0.00020764908,0.0003785278,0.00084390666,-0.00035582896,-0.0011026978,-0.0011280233,-0.0001997158,1.130075e-05,-0.00016397028,0.000104504616,-0.0003916688,0.00047999984,0.00049676804,-0.00014676541,-0.000872194,0.00018073962,8.593791e-05,-0.0005522526,-0.00088351563,-0.0014822911,-0.00036254202,0.00055332494,-0.00013254985,-0.00013237988,0.00038323388,-0.000756568,7.967278e-05,-0.00072946504,2.7858012e-05,-0.00023276417,-0.0006651725,-0.00021881676,-0.0007469469,0.00034041153,-0.0010444305,-0.0011160196,-0.0003378979,-0.0005437746,-0.00080114114,-0.00085028453,3.6487803e-05,2.6507645e-05,-0.0004395435,-0.0012283479,-0.00038566644,0.00079162774,-0.00021905759,-0.00027244765,-0.0007870635,-0.00056282536,-0.00038195404,0.00080220314,0.0008651899,-0.00033868273,0.0011271657,0.00019366943,3.0890813e-05,0.0009139009,0.00042995924,-0.00083256635,-0.0012146963,-0.0006485075,0.00024733532,-0.0016841325,0.00024328487,-0.00019231725,0.00066634855,-0.00010238984,0.00047520347,7.311995e-05,-0.0005935119,-0.00107696,0.00033191574,-0.00040793387,-0.00038244005,-0.0002773455,0.00014221869,-0.00029396772,-1.9608939e-05,-0.0004076021,-0.0011161589,0.0001209131,-0.0003794749,-0.0005268471,-0.00024643505,0.00028039954,3.783389e-05,-0.0016250194,0.0005551495,6.2124906e-05,-3.898524e-05,-0.00083748397,-9.322945e-05,0.00048957905,-2.0855954e-05,-0.00020577265,-0.0008929557,0.00050025183,0.00053718395,-0.0013170048,-0.0006863039,-0.001146491,-7.182553e-05,-0.00085239,-0.00016400573,0.0004266316,0.00024942163,-5.499051e-05,6.527607e-05,-5.8160345e-05,0.00027909424,-0.0006132682,-0.00032652108,-0.0016403357,-6.512818e-05,-0.0003237803,0.00023115442,-0.00037986197,9.580785e-05,-0.00043362973,-0.0003200942,0.0004273522,-0.0007867064,-0.0014946088,0.0003964831,-0.00017021177,-0.0022443915,0.00024033162,-0.00066944974,-0.00046581595,0.00095487246,0.00046337408,-0.00094897987,-0.00041446165,-0.00040562608,0.001093395,7.699429e-05,-0.0006723821,0.00017574777,0.0004835281,-0.0006496472,-0.00083535735,-0.00022011595,-0.00018956393,-0.00042858275,0.00046952386,9.3515635e-05,-0.00043028803,-1.4085832e-05,-0.00018031914,-0.00059643347,-6.8831476e-05,-0.0002575973,-0.0005966611,-0.00046906483,0.0007794899,-7.527865e-05,-0.00030986423,0.0003079817,-5.1670013e-05,-0.0005096208,-0.0008309108,-0.0010179594,-0.0010889529,-0.00027197256,0.00094707863,-0.00030361192,-0.0006482444,-0.00096654694,-0.0005407015,0.00018137819,0.0011783406,0.00010366731,-0.0006779647,-0.00048366043,-0.0009951544,-0.00064382656,-0.0003350552,-0.0013618568,-0.007174076,6.0736616e-05,-0.0038468395,0.00033263696,-0.0005381785,-0.000486347,-0.00058598485,-0.0006775449,-0.00054808694,-0.0005066909,-0.00029739266,-0.00032647312,-0.0001896812,-0.00022342746,-0.00021486901,-0.00010603377,-0.00074339804,0.0004170177,-0.00047291908,-0.00013868863,-0.003490273,-0.0014022794,9.800324e-05,0.00017542612,-0.000575011,-0.00065843086,-0.0001349189,-0.0017390753,-2.366354e-05,-0.00018625165,0.00013029124,0.00013830797,-0.00056429836,-0.0003745079,-0.0014944198,-0.0020187004,-1.4586602e-05,-6.8217305e-05,0.00040659838,-0.00034728734,-0.0003288815,-0.00019810112,0.0005951651,0.00052522216,0.00057325937,0.0002842441,0.00052578613,0.0005801631,0.0008153778,5.765088e-05,-0.0003236446,-0.0002833956,-0.0005376139,-0.0005950908,-0.0005548946,-0.0017256726,0.00027861499,-0.0011033278,-0.0008235787,-0.00057742937,-0.0010945055,0.00026678643,-6.50563e-05,-0.0002534973,-0.0010100987,0.00020824837,0.001780848,0.00019136234,-0.0002648985,-0.0015478568,-0.000379265,0.00023608448,-8.4317246e-05,-0.00041587392,-0.0004990407,-0.00035727533,0.00040560798,0.0019895418,0.00021572507,-0.00039893098,-0.00030431148,-0.0005831555,-0.00065650395,0.00059300696,-0.0002541261,0.00045056676,-0.00026347794,0.00015726566,0.00048834365,5.195421e-05,-7.53701e-05,-4.689728e-06,-0.0003666835,-0.00011905588,-0.00019626928,-0.000926941,-0.0011702072,-0.0016043133,-0.0005359256,0.0006995778,0.00040476743,-0.0006087521,-0.0002238422,0.0003573258,-0.00037208985,0.00013407231,-0.0005597408,-0.0004793804,-0.0005307364,-0.00047836322,-0.0004898575,-0.00020171082,-0.00014979538,-0.0012604623,0.00011107169,-0.0001676757,-0.00082948216,-2.5156289e-05,0.0007170029,0.0011602512,0.00013065613,0.0008384387,-0.0011976185,0.00044043217,0.00023819349,0.000623577,-0.00090904767,0.00083737087,-3.3854114e-05,-0.00015046494,-0.00029925437,0.00066585216,-0.00011155504,-0.00041349008,-0.0018760888,0.0015075897,0.0017635011,-0.00030157095,-8.8766275e-05,0.000104375555,0.00070223,-0.00027369763,-0.00069691916,-9.6279364e-05,0.0004723258,0.0010257536,-0.0033271199,0.0016851544,-8.6441956e-05,-0.00024918484,-0.0004815668,-0.002777062,3.5226255e-06,-0.00045376792,-0.00043351346,-0.00047003606,-0.00010882904,-0.00093714276,-0.00069281907,-0.00058011996,0.00040684946,0.000953005,-0.00066888344,0.000700686,0.000453441,-0.00020575871,-0.00055749377,0.0002129724,-0.00033872304,0.0004380336,-0.00053924235,-0.00022784062,-0.0068708174,-0.00036208687,-2.502756e-05,-0.00015415595,-0.00087824644,0.00012587446,0.00031968617,-0.00020647072,-0.0010771692,-0.000456696,0.0012661583,0.00037827334,-0.0004812916,-0.0012849619,-0.00014250378,-0.00092805404,0.00018367033,-0.005235931,0.000110217574,-0.00011728718,-0.0012612848,0.00010582033,-0.00096533285,0.00027783064,-0.0014484302,0.0001542621,0.000946649,-0.00029947556,-0.00012049009,-0.00032153717,-0.00050713227,-0.00018290948,0.0013786029,0.0016540727,-0.0004757775,-0.00014823882,-0.00041879818,-0.00031630325,-0.0013292215,0.00015380769,0.0008705929,-0.00020830565,-4.6826965e-05,9.750788e-05,-6.1638355e-05,-0.00043959115,0.00028804052,0.000119789795,0.00043987713,-0.00083032687,0.0012884509,-0.0012233683,0.00082166545,-0.00064681866,9.6533346e-05,-0.00036539632,-0.00042358058,-0.0013486907,-0.00015566021,-0.0009369812,6.00705e-05,5.2613785e-05,6.364259e-05,-0.00046311977,-0.0010991773,-5.674904e-05,-0.0003366304,-0.0014272331,-0.00033094548,0.00035821623,0.00045768116,-7.880329e-05,-0.00035038727,-0.00036543634,0.0005446712,-0.00020171078,-0.00061453553,-0.00014613416,0.0011926385,-8.429793e-05,-0.00021910944,-0.00026874224,-0.0011634729,0.00010824726,-5.7663132e-05,-5.681533e-05,0.000318416,-3.6921578e-05,-0.0010125886,-0.0003751638,-0.0004939677,0.00014385728,-0.0010449849,0.000179626,-0.00044957883,0.00095016585,-6.753885e-05,-0.0003742739,-0.00036967866,-0.0027586548,0.00083134335,-0.0016697501,0.00039792468,0.0006314182,0.0006181527,-0.0030104695,-6.9855734e-05,-0.0002350253,-8.509515e-05,6.260118e-05,0.00031791726,-5.8106194e-05,0.00045415424,-0.00052294525,-0.00031498537,0.0001670975,0.0007423301,-0.000813714,-0.00010677343,-0.00045212609,-0.002962909,0.00073637505,-0.0006931272,-7.857525e-05,0.0005003502,-9.31083e-06,0.00022405366,-0.00082382263,0.00036990538,0.00043799303,-8.047169e-05,0.00017610635,-0.0005865367,6.3918495e-05,6.1605846e-05,-0.00035763098,-0.0007460668,-0.00030290073,-0.0012411731,-0.00037128106,-0.00038037996,-0.001806719,0.0011375968,-0.00021054078,-0.00015881709,3.0170047e-05,-0.00072898064,-0.00017569652,-0.00014898834,-0.00025284404,-0.0016423593,-8.855373e-05,-0.0004922573,-0.00012525334,0.00032785535,-0.000660648,0.00038325027,-0.00032451533,0.00020820925,-0.0008011237,0.000999192,-0.0008679103,0.00031648946,-0.0007359794,0.00039891366,-0.00015032038,0.00029269673,0.0008353488,-0.00017576553,0.0005159082,-0.000917174,0.000845071,-0.00044098703,9.155031e-05,-0.0004847758,6.3738036e-05,0.0011023816,0.0008164707,-0.0015393938,-0.00033802757,-0.0002536085,-0.0007109322,-0.0003639024,-0.0008138067,6.9030524e-05,-1.0264534e-05,-0.0002872416,0.00016624783,-0.00014794983,-0.00038002324,0.00041561734,0.0010601961,-0.00030421178,-0.00060160295,0.00078444317,0.0011326345,-0.00096307264,-0.0006464087,-0.0015644234,-1.772277e-05,2.9915505e-05,-0.00093078124,0.00025808756,0.0006391666,-0.00011628453,0.00042743539,-0.0012559638,-0.0020554012,-0.0037792453,0.0007121392,-0.0027374667,-0.00053365045,-0.000678982,-0.00018384372,-0.00026795937,-0.0002519383,-0.0001226033,-0.0007626588,0.0005064226,3.8970116e-05,0.0006351392,0.00038714643,0.0012601984,-0.00064664695,-0.0002638554,0.0005879569,-0.00018843515,-0.000987439,-0.0008919816,0.00049359933,-0.00061916775,-0.00018710429,0.00070737925,-0.0006199693,-0.0005704138,-0.00017795005,-0.0010139913,0.0010473228,8.855332e-06,-0.00019387022,0.00022146752,-0.00041228023,-0.00011426984,-0.0001471826,0.00051338534,-0.00068028714,-0.00040874773,-0.00045881464,-0.00019307551,-0.0005127533,-0.001275631,-0.0005198795,-0.0004305285,0.00055775134,1.4984625e-05,-0.00047106767,-7.1006725e-05,0.0004975251,-0.0006080819,-0.0002714822,2.0367937e-05,0.0007316145,0.00011339928,-0.00062223454,-7.826391e-05,-0.00022423624,-0.00037364571,0.00036180767,0.0011347911,-0.0002464373,-0.00013166292,-3.273345e-05,0.0003627391,-0.00054380606,-0.0005058837,-0.000573537,-0.00053063384,-0.0013575829,0.00065364206,-0.00045153132,-0.0011263519,-0.0008442205,0.0013055386,-0.0010517054,-0.00015070752,0.0017373513,-0.0019124747,-0.00076733786,-0.0016794554,2.8397604e-05,6.2171915e-05,-0.0008731376,-0.0015869954,0.00057751127,0.0008986659,-0.0003118356,-0.0005804945,0.0005401602,-0.0007669997,-0.00044628629,0.0007923244,-0.0003381915,3.1826494e-05,-2.9985144e-05,-0.00012347558,-0.00044976556,0.00022890877,5.5054526e-05,0.00030497793,-7.907231e-06,-0.0008312715,-0.00014964696,-5.3584e-05,-0.00057416735,-0.000593044,0.00010701682,-0.0010982559,-0.00062556623,-0.00010665955,-0.0014512287,0.0009885418,-1.1336376e-05,-0.0006065327,-0.0010436962,0.00040449618,-0.0002572932,-0.000633805,-0.00033536294,0.00011091396,-3.212433e-05,0.000116380346,-0.0005219183,-0.00021807844,0.00042245598,-0.000109226385,-0.00023084322,7.175039e-05,0.0005472944,0.0001779897,0.00023674492,-0.0005838695,-0.0012011296,-0.00055172143,0.00036528337,-0.00051652314,0.00018321027,-0.0010604783,-0.0001874205,-0.00069085363,-0.00033841928,-0.0006196325,-0.00043017435,0.00031799954,-0.00056250504,0.0008558343,-0.00078330544,-0.0009177217,-0.0014391872,-0.0008774766,0.0003662949,0.0013245245,-0.00080612465,-0.00036837775,-6.991191e-05,3.194027e-05,-0.00041586187,0.00066041155,8.464493e-05,0.0005094161,-0.00065547926,-3.1958345e-05,-0.00095307385,-0.00017589467,-0.0010750439,0.000225862,-2.7095279e-05,-0.00037628453,0.00043743005,0.00061780127,0.0003992438,0.00093270995,0.00019008409,-0.00081343134,-2.5427125e-05,-0.00019073095,-0.00029368477,-4.503893e-05,0.00081936974,-0.00097068003,-0.00026734546,-0.0019272732,0.00012508263,-0.00024115168,0.0013703479,-0.0005187275,-0.0010361708,4.0963063e-05,0.00022444068,-0.00036681397,-0.00026500263,-0.00030786765,-0.0021656572,-3.479508e-05,1.4760068e-05,2.1473581e-05,0.0012660198,-0.00042919265,0.000121459205,0.00034926605,-0.0009981624,0.000121466524,-5.9946793e-05,-7.4704876e-05,0.0007934334,-0.0001262647,-0.0008702433,0.00028641545,-0.00015897641,-0.0007439246,-4.2673586e-05,-0.0003332826,-0.00032518373,-0.00061286223,-3.7611915e-06,-0.0011518217,-0.00048287783,0.0005373144,-0.000919756,-0.00031132076,0.0006452504,-0.000599156,5.656539e-06,1.0360261e-05,-1.203408e-05,0.00062274624,-0.0010617665,-0.0010526754,0.0007507869,-0.0014171518,-0.00020271356,-0.006315669,-0.00069383276,-0.00022217596,-0.00015806456,-2.780496e-05,0.0013485264,-0.000214613,0.00024181824,-0.0005999196,7.307321e-05,-0.0007642518,3.0521136e-05,-0.00044113034,0.0004911609,0.0004495775,-0.0007732244,0.00031968192,-1.5386e-05,-0.0006406239,-0.00027942276,-0.00014949634,0.00010453485,-0.0004518434,-0.0004931176,-6.959975e-05,-0.0002214245,-0.0005090318,-0.00037069188,0.00038694942,-0.0009151766,0.00042732217,-8.1862e-06,0.00082671916
