,0,1,2,3,4,5,6,7,8,9,10,11,12,13,14,15,16,17,18,19,20,21,22,23,24,25,26,27,28,29,30,31,32,33,34,35,36,37,38,39,40,41,42,43,44,45,46,47,48,49,50,51,52,53,54,55,56,57,58,59,60,61,62,63,64,65,66,67,68,69,70,71,72,73,74,75,76,77,78,79,80,81,82,83,84,85,86,87,88,89,90,91,92,93,94,95,96,97,98,99,100,101,102,103,104,105,106,107,108,109,110,111,112,113,114,115,116,117,118,119,120,121,122,123,124,125,126,127,128,129,130,131,132,133,134,135,136,137,138,139,140,141,142,143,144,145,146,147,148,149,150,151,152,153,154,155,156,157,158,159,160,161,162,163,164,165,166,167,168,169,170,171,172,173,174,175,176,177,178,179,180,181,182,183,184,185,186,187,188,189,190,191,192,193,194,195,196,197,198,199,200,201,202,203,204,205,206,207,208,209,210,211,212,213,214,215,216,217,218,219,220,221,222,223,224,225,226,227,228,229,230,231,232,233,234,235,236,237,238,239,240,241,242,243,244,245,246,247,248,249,250,251,252,253,254,255,256,257,258,259,260,261,262,263,264,265,266,267,268,269,270,271,272,273,274,275,276,277,278,279,280,281,282,283,284,285,286,287,288,289,290,291,292,293,294,295,296,297,298,299,300,301,302,303,304,305,306,307,308,309,310,311,312,313,314,315,316,317,318,319,320,321,322,323,324,325,326,327,328,329,330,331,332,333,334,335,336,337,338,339,340,341,342,343,344,345,346,347,348,349,350,351,352,353,354,355,356,357,358,359,360,361,362,363,364,365,366,367,368,369,370,371,372,373,374,375,376,377,378,379,380,381,382,383,384,385,386,387,388,389,390,391,392,393,394,395,396,397,398,399,400,401,402,403,404,405,406,407,408,409,410,411,412,413,414,415,416,417,418,419,420,421,422,423,424,425,426,427,428,429,430,431,432,433,434,435,436,437,438,439,440,441,442,443,444,445,446,447,448,449,450,451,452,453,454,455,456,457,458,459,460,461,462,463,464,465,466,467,468,469,470,471,472,473,474,475,476,477,478,479,480,481,482,483,484,485,486,487,488,489,490,491,492,493,494,495,496,497,498,499,500,501,502,503,504,505,506,507,508,509,510,511,512,513,514,515,516,517,518,519,520,521,522,523,524,525,526,527,528,529,530,531,532,533,534,535,536,537,538,539,540,541,542,543,544,545,546,547,548,549,550,551,552,553,554,555,556,557,558,559,560,561,562,563,564,565,566,567,568,569,570,571,572,573,574,575,576,577,578,579,580,581,582,583,584,585,586,587,588,589,590,591,592,593,594,595,596,597,598,599,600,601,602,603,604,605,606,607,608,609,610,611,612,613,614,615,616,617,618,619,620,621,622,623,624,625,626,627,628,629,630,631,632,633,634,635,636,637,638,639,640,641,642,643,644,645,646,647,648,649,650,651,652,653,654,655,656,657,658,659,660,661,662,663,664,665,666,667,668,669,670,671,672,673,674,675,676,677,678,679,680,681,682,683,684,685,686,687,688,689,690,691,692,693,694,695,696,697,698,699,700,701,702,703,704,705,706,707,708,709,710,711,712,713,714,715,716,717,718,719,720,721,722,723,724,725,726,727,728,729,730,731,732,733,734,735,736,737,738,739,740,741,742,743,744,745,746,747,748,749,750,751,752,753,754,755,756,757,758,759,760,761,762,763,764,765,766,767,768,769,770,771,772,773,774,775,776,777,778,779,780,781,782,783,784,785,786,787,788,789,790,791,792,793,794,795,796,797,798,799,800,801,802,803,804,805,806,807,808,809,810,811,812,813,814,815,816,817,818,819,820,821,822,823,824,825,826,827,828,829,830,831,832,833,834,835,836,837,838,839,840,841,842,843,844,845,846,847,848,849,850,851,852,853,854,855,856,857,858,859,860,861,862,863,864,865,866,867,868,869,870,871,872,873,874,875,876,877,878,879,880,881,882,883,884,885,886,887,888,889,890,891,892,893,894,895,896,897,898,899,900,901,902,903,904,905,906,907,908,909,910,911,912,913,914,915,916,917,918,919,920,921,922,923,924,925,926,927,928,929,930,931,932,933,934,935,936,937,938,939,940,941,942,943,944,945,946,947,948,949,950,951,952,953,954,955,956,957,958,959,960,961,962,963,964,965,966,967,968,969,970,971,972,973,974,975,976,977,978,979,980,981,982,983,984,985,986,987,988,989,990,991,992,993,994,995,996,997,998,999,1000,1001,1002,1003,1004,1005,1006,1007,1008,1009,1010,1011,1012,1013,1014,1015,1016,1017,1018,1019,1020,1021,1022,1023,1024,1025,1026,1027,1028,1029,1030,1031,1032,1033,1034,1035,1036,1037,1038,1039,1040,1041,1042,1043,1044,1045,1046,1047,1048,1049,1050,1051,1052,1053,1054,1055,1056,1057,1058,1059,1060,1061,1062,1063,1064,1065,1066,1067,1068,1069,1070,1071,1072,1073,1074,1075,1076,1077,1078,1079,1080,1081,1082,1083,1084,1085,1086,1087,1088,1089,1090,1091,1092,1093,1094,1095,1096,1097,1098,1099,1100,1101,1102,1103,1104,1105,1106,1107,1108,1109,1110,1111,1112,1113,1114,1115,1116,1117,1118,1119,1120,1121,1122,1123,1124,1125,1126,1127,1128,1129,1130,1131,1132,1133,1134,1135,1136,1137,1138,1139,1140,1141,1142,1143,1144,1145,1146,1147,1148,1149,1150,1151,1152,1153,1154,1155,1156,1157,1158,1159,1160,1161,1162,1163,1164,1165,1166,1167,1168,1169,1170,1171,1172,1173,1174,1175,1176,1177,1178,1179,1180,1181,1182,1183,1184,1185,1186,1187,1188,1189,1190,1191,1192,1193,1194,1195,1196,1197,1198,1199,1200,1201,1202,1203,1204,1205,1206,1207,1208,1209,1210,1211,1212,1213,1214,1215,1216,1217,1218,1219,1220,1221,1222,1223,1224,1225,1226,1227,1228,1229,1230,1231,1232,1233,1234,1235,1236,1237,1238,1239,1240,1241,1242,1243,1244,1245,1246,1247,1248,1249,1250,1251,1252,1253,1254,1255,1256,1257,1258,1259,1260,1261,1262,1263,1264,1265,1266,1267,1268,1269,1270,1271,1272,1273,1274,1275,1276,1277,1278,1279,1280,1281,1282,1283,1284,1285,1286,1287,1288,1289,1290,1291,1292,1293,1294,1295,1296,1297,1298,1299,1300,1301,1302,1303,1304,1305,1306,1307,1308,1309,1310,1311,1312,1313,1314,1315,1316,1317,1318,1319,1320,1321,1322,1323,1324,1325,1326,1327,1328,1329,1330,1331,1332,1333,1334,1335,1336,1337,1338,1339,1340,1341,1342,1343,1344,1345,1346,1347,1348,1349,1350,1351,1352,1353,1354,1355,1356,1357,1358,1359,1360,1361,1362,1363,1364,1365,1366,1367,1368,1369,1370,1371,1372,1373,1374,1375,1376,1377,1378,1379,1380,1381,1382,1383,1384,1385,1386,1387,1388,1389,1390,1391,1392,1393,1394,1395,1396,1397,1398,1399,1400,1401,1402,1403,1404,1405,1406,1407,1408,1409,1410,1411,1412,1413,1414,1415,1416,1417,1418,1419,1420,1421,1422,1423,1424,1425,1426,1427,1428,1429,1430,1431,1432,1433,1434,1435,1436,1437,1438,1439,1440,1441,1442,1443,1444,1445,1446,1447,1448,1449,1450,1451,1452,1453,1454,1455,1456,1457,1458,1459,1460,1461,1462,1463,1464,1465,1466,1467,1468,1469,1470,1471,1472,1473,1474,1475,1476,1477,1478,1479,1480,1481,1482,1483,1484,1485,1486,1487,1488,1489,1490,1491,1492,1493,1494,1495,1496,1497,1498,1499,1500,1501,1502,1503,1504,1505,1506,1507,1508,1509,1510,1511,1512,1513,1514,1515,1516,1517,1518,1519,1520,1521,1522,1523,1524,1525,1526,1527,1528,1529,1530,1531,1532,1533,1534,1535,1536,1537,1538,1539,1540,1541,1542,1543,1544,1545,1546,1547,1548,1549,1550,1551,1552,1553,1554,1555,1556,1557,1558,1559,1560,1561,1562,1563,1564,1565,1566,1567,1568,1569,1570,1571,1572,1573,1574,1575,1576,1577,1578,1579,1580,1581,1582,1583,1584,1585,1586,1587,1588,1589,1590,1591,1592,1593,1594,1595,1596,1597,1598,1599,1600,1601,1602,1603,1604,1605,1606,1607,1608,1609,1610,1611,1612,1613,1614,1615,1616,1617,1618,1619,1620,1621,1622,1623,1624,1625,1626,1627,1628,1629,1630,1631,1632,1633,1634,1635,1636,1637,1638,1639,1640,1641,1642,1643,1644,1645,1646,1647,1648,1649,1650,1651,1652,1653,1654,1655,1656,1657,1658,1659,1660,1661,1662,1663,1664,1665,1666,1667,1668,1669,1670,1671,1672,1673,1674,1675,1676,1677,1678,1679,1680,1681,1682,1683,1684,1685,1686,1687,1688,1689,1690,1691,1692,1693,1694,1695,1696,1697,1698,1699,1700,1701,1702,1703,1704,1705,1706,1707,1708,1709,1710,1711,1712,1713,1714,1715,1716,1717,1718,1719,1720,1721,1722,1723,1724,1725,1726,1727,1728,1729,1730,1731,1732,1733,1734,1735,1736,1737,1738,1739,1740,1741,1742,1743,1744,1745,1746,1747,1748,1749,1750,1751,1752,1753,1754,1755,1756,1757,1758,1759,1760,1761,1762,1763,1764,1765,1766,1767,1768,1769,1770,1771,1772,1773,1774,1775,1776,1777,1778,1779,1780,1781,1782,1783,1784,1785,1786,1787,1788,1789,1790,1791,1792,1793,1794,1795,1796,1797,1798,1799,1800,1801,1802,1803,1804,1805,1806,1807,1808,1809,1810,1811,1812,1813,1814,1815,1816,1817,1818,1819,1820,1821,1822,1823,1824,1825,1826,1827,1828,1829,1830,1831,1832,1833,1834,1835,1836,1837,1838,1839,1840,1841,1842,1843,1844,1845,1846,1847,1848,1849,1850,1851,1852,1853,1854,1855,1856,1857,1858,1859,1860,1861,1862,1863,1864,1865,1866,1867,1868,1869,1870,1871,1872,1873,1874,1875,1876,1877,1878,1879,1880,1881,1882,1883,1884,1885,1886,1887,1888,1889,1890,1891,1892,1893,1894,1895,1896,1897,1898,1899,1900,1901,1902,1903,1904,1905,1906,1907,1908,1909,1910,1911,1912,1913,1914,1915,1916,1917,1918,1919,1920,1921,1922,1923,1924,1925,1926,1927,1928,1929,1930,1931,1932,1933,1934,1935,1936,1937,1938,1939,1940,1941,1942,1943,1944,1945,1946,1947,1948,1949,1950,1951,1952,1953,1954,1955,1956,1957,1958,1959,1960,1961,1962,1963,1964,1965,1966,1967,1968,1969,1970,1971,1972,1973,1974,1975,1976,1977,1978,1979,1980,1981,1982,1983,1984,1985,1986,1987,1988,1989,1990,1991,1992,1993,1994,1995,1996,1997,1998,1999,2000,2001,2002,2003,2004,2005,2006,2007,2008,2009,2010,2011,2012,2013,2014,2015,2016,2017,2018,2019,2020,2021,2022,2023,2024,2025,2026,2027,2028,2029,2030,2031,2032,2033,2034,2035,2036,2037,2038,2039,2040,2041,2042,2043,2044,2045,2046,2047
0,-0.14157294,-6.0953524e-05,0.12303084,-0.07645386,0.00057732244,0.0007138397,0.008591148,0.000700286,-0.008196781,0.00015899433,-0.03491481,-0.08857949,-0.09614973,-0.046081565,0.00053126056,-0.01079214,-0.0003604884,-3.702582e-05,-0.00043953353,-0.00092231383,6.524105e-05,0.0002919025,-0.00023544327,0.000260433,5.6984423e-05,0.0002533162,0.00062428834,-0.023321565,-0.02287913,0.0005910988,-0.0001874791,-0.0042059207,-0.0056003677,0.00024947312,-0.0090609575,-0.025101004,-0.00048514083,-1.5840646e-05,-0.00057052437,0.00013217304,0.00031431395,0.0012030662,-0.0006755336,0.0003960646,0.00038241353,0.0002678248,9.3829505e-05,6.540914e-05,0.0006518507,0.0052259336,8.38391e-05,-0.00083816826,-0.00080000726,-0.022235507,0.00011063524,2.3726592e-05,-0.00017388185,-0.0026426027,0.00020865297,-0.07447528,0.00018363127,-5.9016493e-05,-0.015248359,0.017530454,1.537274e-05,-0.073129706,-9.682413e-05,-4.935418e-05,-0.00012963258,0.0006500166,2.673382e-05,-0.00014002789,-0.016640678,-9.896645e-05,-0.00042699548,-0.00010549189,-0.014024236,4.375602e-05,0.00015002882,-0.006018518,-0.0001169205,0.00014589199,-0.00063319394,0.0020672337,0.0004257189,0.00023748605,-1.4910754e-06,0.00013859056,-0.021331582,-0.055570327,-4.0583887e-05,-0.00023421836,8.048172e-06,-7.899263e-05,0.000591953,0.0045467527,0.00018981013,-0.0025314735,0.00029234044,-0.00027268272,-0.00017488496,-0.11869763,-0.031227197,4.2261934e-05,-0.017814742,6.341742e-05,-0.018241925,0.00010747365,0.00071611936,0.0060144234,-3.3741726e-05,0.00028758307,4.685066e-05,-0.044245876,0.0007530331,-0.029119149,-0.00201939,0.0073311045,0.00040266325,-0.00019136695,-0.0019185137,-0.000106934276,-1.9852087e-05,2.8050481e-05,0.10985531,-4.8404403e-05,7.5128846e-05,-0.0022114918,-0.00022679314,8.218074e-05,-0.00013831073,0.0015755761,-0.00011139551,-0.00022956585,0.03094862,1.2798578e-05,-0.00016747977,-0.00011547335,-0.00046448884,-0.0069179265,-0.0002110362,0.00026922315,-0.00021383326,0.0003358513,-0.061335128,0.0004376772,0.00043115695,-0.027504068,-0.007634294,-0.0002375757,7.372104e-05,-0.002734498,0.00012716843,-0.00028809436,0.0050253635,6.5657754e-05,0.00034438327,-0.00011665969,4.3761913e-05,-7.565314e-05,0.042431876,0.00017596972,0.000351401,0.0007966922,-4.1639078e-06,0.011918871,0.00045170388,0.007781604,0.018368134,9.78378e-05,-8.001748e-05,-0.009033508,-0.00016727767,0.00023709015,2.295561e-05,8.82552e-05,0.0017452177,0.00010698738,0.00345499,-0.00075634965,0.00059539836,-0.00040779923,0.0003436683,-0.016730424,-0.025137927,-8.3787374e-05,-0.025376555,0.0002403726,-0.010570322,-0.052304596,-0.0009816543,-0.00012481632,-0.00036325725,6.723347e-07,-0.00011198968,0.0062848534,0.012518591,-0.015322923,-4.3832265e-06,7.060382e-05,3.108599e-05,-0.0062938607,0.00018460922,0.00029655301,0.018747991,0.00031689147,-3.511906e-05,2.1303042e-05,0.00013803075,0.0095897205,0.0072952053,-0.0054561906,3.149749e-05,7.4192125e-05,8.480911e-05,-0.020474149,0.030556258,-0.0041351053,-0.00014079979,1.1063698e-05,-1.6419677e-05,7.519442e-05,-0.00018618605,0.000322787,-0.00034573092,6.065477e-05,0.00081798696,-0.018947992,8.518754e-05,0.00017221858,-0.00045524,-0.00032803416,-3.583542e-05,0.044876907,4.8515416e-05,0.00016524787,-0.1633601,0.04785968,0.003660337,5.9271453e-05,0.039879836,-0.0006274517,-9.447995e-06,0.0039086486,0.003911389,-0.00065629877,-8.4873165e-05,-0.006878009,-0.018501768,0.0005596501,0.00011308039,-0.06672111,5.3970907e-05,-0.0015686887,0.07222596,0.00089847384,0.0051947213,-0.00020434397,-0.00047470556,0.00018014964,6.6451576e-05,-9.683122e-05,8.602663e-05,-6.291363e-05,0.00019025177,-2.968737e-05,0.00016519241,-3.8473986e-06,-3.532157e-05,0.00034138164,2.2691802e-05,0.00046501687,-0.0003648876,-0.00012439491,0.057006072,0.0002231201,0.000106400876,-0.0003930078,0.00023816098,0.00023013249,0.08857613,0.00020703832,-0.04163804,9.0108495e-07,0.00011647425,5.8819685e-05,-1.8000783e-05,-0.00018394986,-0.0002821848,0.00026780964,-0.034333803,-0.00012451995,0.00012391125,0.0003346168,0.00017307125,0.00043012924,-0.0026647015,-0.006365459,-1.17982745e-05,0.00033689872,-0.0034818964,-0.018956022,-0.027496869,-0.0040116813,-0.0052597425,-0.015536766,0.022355197,-0.005425074,0.0017793541,5.127881e-05,-0.1113197,0.00044502638,-0.036189675,2.165269e-05,0.009687166,-0.00018508291,0.0004876425,-0.0088660745,0.00018069697,-0.00025278865,-0.00057844765,0.0030011993,-0.0030626645,7.542175e-05,-0.07492535,0.00018698092,2.7345019e-05,-0.00050228444,-0.00048258362,-0.00086522417,0.00014757988,0.0002797465,-0.101777874,0.005119758,-6.5639644e-05,0.00027574698,0.00016715056,0.0007334558,2.4423065e-05,6.3648884e-05,-0.00079348753,-7.833239e-06,0.00022570472,0.00037669155,1.2729814e-05,0.00042382907,1.5498592e-05,0.00012252347,8.922178e-05,-0.030641928,0.014840497,-0.04292007,-0.00019032309,-0.00042637647,0.00011752723,-0.00012010526,0.00015850662,0.0034659333,-0.015134443,0.00011494228,-0.00019371763,-0.0015794853,0.005221747,-2.0024998e-05,-6.998701e-05,-0.007242218,8.759724e-05,-0.00015230947,-6.0658585e-05,0.015717972,-0.0008139222,9.4843665e-05,-0.07931796,0.00049497955,0.00015947125,-0.009088302,-0.00023194196,-2.7123175e-05,7.813524e-05,0.00038748115,-1.083697e-05,-0.008275666,0.024827931,2.0921849e-05,0.00017269637,5.244378e-05,-0.00091847894,8.211164e-05,-8.865796e-05,1.1520022e-05,0.00012959064,0.0008247083,6.0215418e-05,0.00023942588,-0.0012832151,0.0005725996,0.042055327,0.001662706,0.0004595188,0.007035415,-0.00025082767,0.00022972764,0.016444735,-0.00997943,-2.528062e-05,0.010695777,0.0002900641,-0.00024114645,0.026860185,-0.00020040885,0.0003644175,-9.1936985e-05,-0.00059330993,-0.0049866275,-4.2630843e-05,0.0002884427,-0.00026204737,-0.0006355965,-0.004920567,0.009607885,-0.00037905044,-0.0001890129,4.4479177e-05,-0.0122858165,-5.410487e-05,-0.0046936134,6.870965e-05,-0.00023966821,1.8851542e-05,0.00013700765,-0.00010337149,0.00043511792,0.00030923376,-0.0002766942,0.00596485,-0.0002615306,-0.00010033156,0.00065921264,0.03607802,6.141413e-05,9.511261e-05,0.007091971,-0.014595702,-0.00018118619,-9.251105e-05,0.0006226874,0.00011588701,7.186535e-07,-0.0056025763,-7.203035e-06,1.1796648e-05,-1.9988505e-05,0.00034109864,4.422038e-05,0.00034111683,0.029276768,-3.932201e-05,9.30737e-05,0.03477107,-0.000270123,-0.007109973,-2.6362804e-05,-5.332046e-05,-0.023428254,0.032806344,0.0002308411,0.0004763287,-0.0012101314,-3.1907e-05,0.0004667533,0.00023460442,0.00016123564,0.00022644298,-0.014039282,0.00019541474,-0.000107421016,-0.00016302985,-0.0032817554,-0.012165887,-0.06562666,-0.0025635604,0.0001720506,-3.3531465e-05,-5.0630217e-05,0.0007860218,0.0007189859,6.1065552e-06,0.0034789683,6.090529e-06,-2.101361e-05,2.0521476e-05,-0.00011770932,0.00013267745,-0.04648874,1.6755188e-05,0.00033829364,-0.009048325,-3.0136205e-05,9.3279596e-05,-0.00016973178,0.00058662595,8.710483e-05,0.00032682205,-0.00062045746,-0.00018404948,1.2100662e-05,0.00045445876,-4.2534393e-05,-0.00069110736,4.9779646e-05,1.7981612e-05,0.032916155,0.00097568193,-0.00041962997,0.025369156,0.00041943495,0.02192846,0.00014108821,-0.00032779947,-0.0001783057,1.8901932e-05,-0.046517245,0.00023781195,0.017775906,-5.658178e-05,-4.877691e-05,-0.00011094594,2.2470384e-05,-3.0432482e-05,-0.009028499,-0.0065511265,-0.00041483456,-0.002631102,0.0001478941,-0.0004325244,-0.0073797507,0.00043745636,0.0003736365,-6.807831e-05,-0.0010604346,-0.0005930497,8.70315e-05,-0.004178321,-5.3959982e-05,1.5188499e-05,-0.0001565068,-0.00019066744,-0.00020225345,0.00013682182,-0.00026617825,0.00012338322,0.044340044,0.00019522011,0.00010097639,0.0013036596,0.0003722048,0.016099757,-0.00010865631,0.00016998655,-0.00033920558,-0.03888183,-0.00061443396,4.01858e-05,0.013693629,-8.816008e-05,0.00043743016,-0.0012865469,0.00028453348,5.5115466e-05,-0.000132924,0.05187734,-0.0038948273,0.017892906,-0.00027811507,6.878014e-05,-0.06382942,0.013774557,0.12924205,0.010143306,-5.4894754e-05,-0.051594216,0.00026601148,-0.00015269761,-0.010134731,-0.003246427,-0.0024360344,-0.10511096,-8.7325e-05,0.00014760843,-6.701312e-05,0.00012339103,0.0021604362,0.00031638308,-0.00027448285,0.0007627211,-0.00041161498,0.027031897,0.00021604467,-0.00031628556,-5.5258292e-06,-0.018274726,-0.0005571141,-6.194965e-05,0.012969999,-0.00023263981,-0.00011589013,5.632713e-05,0.0013485187,-0.017480025,0.00019818093,-0.0008227114,-0.0064557632,0.00017703358,-0.009200016,-0.0006735299,-5.7506364e-05,0.0669786,-2.462127e-05,-0.0015473608,-0.00027448058,4.6296223e-05,-1.4503657e-05,-0.0001754445,0.028968316,-0.0149547765,0.00031717622,-0.02938557,-1.2045221e-05,-0.017880293,0.013997965,0.0006032774,-0.00045037037,0.00020968847,2.9593026e-05,-0.087780386,-0.021818122,0.08200748,-0.014341522,-0.049575627,-0.0002427861,-0.006721162,-0.005671911,0.00090514193,-1.0355577e-05,0.00019468454,8.688124e-05,8.856306e-05,0.0002607561,-6.196747e-05,0.002305425,-0.018221388,0.00020127461,-0.00032257845,-0.0005239778,0.00020516518,0.0011708488,0.02332725,0.04743261,-0.011192036,0.022888292,0.0002916018,0.0030026268,0.0020747795,-0.00040150614,0.0001351295,8.794072e-05,0.14166562,-0.009424782,0.00015912091,8.184904e-05,-0.00025570657,0.0468787,0.00017199942,0.0002339527,0.0004337548,0.009269766,3.4683388e-05,-5.730961e-07,-0.0006328496,0.015359808,-0.016846346,0.00023205849,0.010676732,0.0004770851,-0.00013852799,3.8646984e-05,-0.023494046,0.000109399676,3.5372403e-05,-0.00011657822,0.0018698147,0.00016479459,-0.052102193,9.8817545e-05,2.6659969e-05,-0.013683855,-0.01183106,-0.00034560153,-0.00051945,-0.00020050348,-0.03458164,-0.00022520211,0.0064702686,-6.415453e-05,4.5262022e-05,-0.008687132,-0.0025353844,0.021160902,-8.549554e-05,-0.00018120318,0.00014010892,0.00070580165,1.6021944e-05,1.8021998e-05,0.008741339,0.0060189916,-4.7534457e-05,0.00031269592,0.0003287903,0.1075864,-0.105874985,0.00048167366,0.054799974,0.00012759956,0.0003014013,0.00026940613,-9.65118e-05,-3.3117703e-05,0.00025900855,0.00023051442,-0.0034187369,-0.015412798,0.0021674768,0.00024239626,-0.0029886225,0.0004882597,0.08716745,-0.016585406,0.00016126344,0.00015086493,-0.011181079,0.00035482857,-0.037260503,0.028146647,9.224352e-05,-0.0059019513,0.00013970325,-5.2087675e-05,-0.0001539582,-0.035145096,-0.0064786933,0.00014062834,0.00033261316,0.004080383,-7.0720926e-05,-0.015324011,-0.00013268649,0.00010507109,0.00043685816,-0.00014749636,4.4182456e-05,-0.017277947,0.05203505,5.9473085e-05,0.00029688686,-0.0010760666,0.00013486597,-0.005264344,-0.07876818,0.00019197987,-1.2713337e-05,0.00017069212,4.4767592e-05,0.0001246518,0.00037097454,-3.23464e-05,-0.011746388,-0.00015910843,-0.02887513,0.00020783854,0.02241692,0.0011144001,4.757706e-05,-0.00019206532,4.7856694e-05,-0.0022649786,6.85901e-05,-0.00026202734,-0.000112772,0.00013740222,0.00029349254,6.2089035e-05,-0.0013031088,0.00026584265,0.000476448,2.7774042e-05,0.046834372,0.01515753,-0.012731084,0.00028242878,0.000232055,5.6987365e-06,-0.028268319,-4.111954e-07,-0.0013191473,8.3827785e-05,-0.0037419698,8.150677e-05,-0.00019104841,-0.0042076726,-4.545976e-05,0.00020215336,-3.159025e-05,-0.049117353,0.00017286147,-0.12592186,-0.00096662657,0.00010066529,-0.0001096424,-0.10298169,-0.026752047,-0.0452353,0.00038678115,2.9122837e-06,0.15149851,0.00015401554,0.00028384858,0.0004961645,0.053760573,0.014249715,-7.0375805e-05,-0.0034908112,5.9154034e-05,-0.02842884,-0.008707279,2.5594334e-05,0.002966543,0.0004969748,0.00061774114,-0.005815811,0.011582435,0.00015753016,-5.132937e-05,-5.141008e-05,-3.387547e-05,0.04614665,0.00014180632,0.00019951967,-0.00041473616,3.286421e-06,0.00021947917,0.0002463069,1.7630548e-05,0.000102518665,-9.49389e-06,0.007875515,-0.015823299,-0.033770587,0.00074029923,0.0003904836,7.489404e-06,0.00021062915,-0.0068815732,-3.0522944e-05,8.728353e-05,-0.006874452,-6.481019e-05,0.00045359755,-0.00016070138,-8.154111e-05,-0.008494313,-1.993104e-05,0.0014852928,0.003993249,-8.398884e-05,0.00027393593,0.003301282,5.2534604e-05,-0.004895322,-0.014724717,0.00033884167,-0.049801722,0.0037764518,0.013898043,-2.066829e-05,0.00025949688,0.0001262075,0.004191489,-0.0003550366,3.1002714e-05,6.0057388e-05,-2.5618083e-05,2.1923295e-05,1.5581534e-05,-0.036302608,-0.026827425,0.0004005387,-0.00013330637,-7.491019e-05,0.0007177736,0.00031390632,0.00010831554,-0.00014688565,2.5891693e-05,-0.039227046,-0.00063963915,1.6077405e-05,-6.158213e-05,0.00044679697,0.0022387516,0.009050503,-0.049256843,-0.00011535719,0.00037517512,-0.0005244976,-0.00015840173,-0.043835998,-0.02344507,0.0003217808,0.025896706,0.00030421556,6.758415e-05,1.4886214e-05,-2.515172e-05,-0.00017410962,-0.0002348459,0.00027800578,-0.0072842482,-7.618707e-05,-0.018361948,7.583526e-05,3.6938443e-05,-0.0002480629,-6.475296e-05,0.0002093397,-0.053104203,8.846327e-05,0.003652264,0.0005363304,0.0011263969,0.00032047028,-9.7755044e-05,0.00044472146,-0.023214795,-0.005743101,-0.00035156478,-0.0003228863,0.00017172337,-0.00022570377,-0.00027136068,-4.3947686e-05,0.00047174102,-0.041203633,0.0010424956,0.00024249159,-2.0096553e-05,0.0014128976,-0.0002511169,0.00010962588,-0.0008471922,0.0003688751,0.00023021107,-0.00014981671,5.7610264e-06,-1.6337268e-05,-0.020704344,8.095777e-05,-0.12262631,-0.0023775566,7.03943e-05,-0.026357848,0.00016141307,0.00011036903,0.00021074811,0.00013760618,0.0001022436,0.0005740927,0.0123150125,0.00020033971,-6.7124434e-05,0.0002948619,0.0017617954,0.0004648161,0.0001132178,-0.00021059065,0.0007680799,-9.033867e-05,0.0004077053,5.313535e-05,-8.324316e-05,0.00020174072,0.008653216,-3.707466e-05,-9.564958e-05,0.00018201373,0.008515002,-0.027587542,-3.5699726e-05,-0.0076722987,-0.025521964,0.013812124,-0.00026794928,0.00036985244,0.0012305655,0.0006813977,0.0004858271,0.00021932539,-0.00023917262,0.00048690394,-9.663782e-05,-0.013867755,-0.0004669811,-0.0007326505,0.00015990593,0.045248087,0.00011347755,0.00039509832,0.00033944502,3.3121836e-05,0.003876448,7.828263e-05,-0.000102518985,0.00013419315,5.1794366e-05,0.096288234,0.00058784976,-8.50417e-05,-3.841018e-05,-0.15916644,-0.0006180978,-0.00014291286,0.0004321682,-0.00020342361,7.630105e-05,-0.0034440209,3.7151967e-05,9.48398e-05,0.00036043816,-0.00011169271,-0.011815636,0.00015636894,0.0014785659,-0.00020311221,0.03821452,0.00016096965,0.00072890177,0.0009351969,0.0004510009,-0.011327887,-1.0183086e-06,-0.0001161937,0.01131062,-0.003987244,9.085124e-05,0.00085513317,0.110842064,-0.041484203,-0.00021540216,8.970334e-05,-0.003696148,-0.021599723,-0.00030593734,-0.00011684525,0.0005209753,0.000115939474,0.00013046338,0.02850297,-0.007534971,-0.0002222801,0.0007239184,0.0003294925,0.00012138622,0.053419847,-0.037357073,0.18676123,0.002116556,0.00038256575,0.00049079343,-2.9631126e-05,-0.00026747893,0.00028881294,-0.058662035,-0.0001050814,0.007858773,0.00013231364,0.009906419,-0.00021784086,0.00023251996,-0.00013004093,0.00013949846,0.010932544,-0.00028297165,2.9204999e-05,4.35452e-05,0.00034203636,-2.715507e-05,-0.00902744,7.446209e-05,0.00015580156,5.507575e-05,0.00027980783,-0.007857176,-0.08346726,-0.0011246194,-0.00016556749,0.0010041391,-0.00031319621,-0.00010892191,-6.5113557e-07,0.018659975,0.026626624,-0.00015203902,-0.00043580076,-0.0016536576,0.000138308,-0.024832483,-0.011368325,-8.6612534e-05,0.00023516647,0.0062601003,-0.032314885,-0.00022252694,-0.00044840798,-0.03643326,2.3739046e-06,-0.00033102286,0.00039380367,-4.06778e-05,-0.00024663756,-0.047023866,5.3279986e-05,0.00021338071,-0.00042423134,-0.00035536956,0.00016115293,-0.00019179961,0.0005969307,-0.008716027,-0.00023479995,0.00041345396,-0.005499976,9.384117e-05,-0.028337687,-0.00011405674,2.4747516e-05,1.3297772e-05,-0.00023219924,1.242043e-05,0.025190962,4.862188e-05,-0.00018735614,0.00034658,-0.00046219944,0.0001630423,0.04816414,-3.4956158e-06,0.000109207984,6.0842263e-05,-3.1412653e-06,-5.708249e-06,-9.6069845e-05,-7.7437246e-05,-0.0044842595,3.2164295e-05,0.030278392,-0.07534159,0.00013398772,-0.00020580941,-0.0033159852,5.858685e-05,-0.00010245884,0.00026190633,-0.018643843,-0.00010089519,-0.0333255,2.7257673e-05,8.121269e-05,0.00010790346,-0.00057083403,0.00026872303,-0.00014908424,0.00030146108,0.020154616,-0.00063382817,-0.00019143496,-0.00018542988,-6.724195e-05,-0.0022996948,7.814292e-05,-0.07330941,-0.016747737,0.0005580809,-6.4046595e-05,-0.00047749604,-0.00042647732,0.013443103,-0.11282065,-0.00034434433,-0.00023959171,-0.02052928,-0.040687714,0.00015502759,-0.014268174,0.06373461,0.00043193513,0.0067751766,-2.7781934e-05,-8.320052e-05,0.0010884387,0.00036160377,-0.00019154945,-0.0129844,-0.00026498525,-0.005139252,-1.48828085e-05,-0.07241431,0.00077674876,0.00022116385,-0.08021755,0.00021288732,-0.00082601816,6.3040214e-05,-8.490088e-06,-4.216397e-05,0.0071971784,0.07827532,-0.00076212856,0.007590343,-4.5835026e-05,-0.00017502102,0.00011958979,0.0004664919,-8.063105e-05,0.00016338365,-0.018077722,0.007211888,-0.009212044,0.027623955,9.888943e-05,0.00019415746,-2.2337572e-05,-1.3085043e-05,0.00031106733,0.00013511308,-0.0003224125,1.111088e-06,2.6360694e-06,-0.016597582,0.00027650845,-0.006510337,-5.9597137e-06,-0.00024954602,0.03771161,0.0002371871,-0.00012972804,-0.02757237,0.0054397928,-0.020270474,-0.0015636049,-0.00020243571,0.0006863441,0.1208362,9.487354e-05,0.16512994,0.026702652,0.00063066813,-0.007958081,-0.00070655363,0.008293976,-0.009551306,7.6975775e-05,0.012802194,0.0007267143,0.00022743325,-0.030651053,0.00016588252,0.00025728036,-0.0013436112,0.016874019,-0.07251086,0.0011301574,-0.014002329,1.8172397e-05,-0.061122257,4.73197e-05,-0.08853672,0.00035783823,-8.374143e-05,0.0003629996,-0.015673637,6.9215507e-06,0.02340647,0.010116005,-5.047166e-05,-0.082661234,-0.008360764,0.0002447134,0.0038231078,-0.00016960377,-6.107e-05,4.014693e-05,-0.0065161926,0.0008385248,-2.173546e-05,-1.8833669e-05,0.00031182327,-0.0075435974,-0.00022988896,0.00028498945,-0.07047193,1.9724823e-05,3.0015683e-05,0.10459664,0.00021214689,-0.00029615272,0.0004996446,0.035771146,0.00025017204,-0.0003435493,-0.00026069058,0.000117834286,0.00014411032,6.276567e-05,6.330769e-07,5.263211e-06,-7.2963034e-05,0.00013798845,-0.00018258224,0.00013225958,-0.00012971049,0.038128465,1.8610715e-05,-0.00043217783,0.00011557371,-0.0024664167,0.0007966014,-0.060750294,-0.009320761,0.00045222204,3.0332561e-05,-0.054125197,0.0001815179,-0.0028057199,-2.9910696e-05,-0.00020443911,-0.00027786504,1.9103358e-05,-7.3460586e-05,6.6177396e-05,-0.00017146631,-0.013353569,0.00021560708,-0.03661728,-0.000108452296,0.00021861622,-0.00025153256,0.0002573845,0.0023825504,-1.0680367e-05,-0.0021278218,0.0968953,0.0012071676,-0.00016771744,-0.015177764,-6.984643e-05,-0.00014125207,-0.0042253355,-2.013958e-05,0.00029584565,-0.00047791316,2.7633161e-05,1.3426714e-05,-0.00029999335,4.0276096e-05,-0.06823796,0.000119642486,-0.018406125,0.0008752428,-5.8373585e-05,0.00044049844,0.011764925,-0.00054353423,-7.375454e-05,0.023336163,-0.0010266268,-0.001958489,0.00038788782,0.00021997477,0.041565143,0.012810195,0.0073032426,-0.044490434,-2.2147667e-06,-7.4231226e-05,0.00034663384,0.00079203094,6.805133e-05,-1.0986099e-05,-0.0001300381,0.00028476803,0.011579271,0.00012338575,-5.2873074e-05,-0.05304649,-0.0031315517,-8.386719e-05,-0.101013064,0.00021276284,-0.00019177895,-0.0010247601,-0.00010476047,-0.0238874,0.00017415543,0.0003520571,-0.00021129422,-0.00019440804,-0.0012700735,-0.0028458554,-5.690205e-05,-0.00057984656,-0.0020975075,-5.5053373e-05,3.201764e-05,-0.0013480581,0.0001405194,0.0028416924,9.156783e-05,0.027165167,-0.00023775769,-0.060302593,0.004438384,0.0014161352,-0.008450455,-0.0004976134,0.0026951588,-2.0222504e-05,-0.04460672,7.7647695e-05,-0.030361326,-0.0013381512,0.00022690058,4.682971e-05,0.00019919552,0.00023314083,0.00020755873,0.00031498465,-0.007862594,5.6600995e-05,2.0486654e-05,-0.00013681354,0.00041785176,0.0028631405,3.3330005e-05,0.0076707187,-0.00042336265,-0.00016261268,0.00045765337,0.0011563317,-0.0004227828,-0.004239921,0.0007108881,-0.0008417605,0.021536242,0.00048112313,-7.0134985e-05,0.00057785737,-6.6993925e-05,-0.07621234,-0.007230956,0.029299485,0.029125419,-0.0018647144,0.0008936057,-0.00080777216,0.00041506966,-0.07843123,0.0004361751,5.4435353e-05,-0.0016228899,0.00042145344,0.0002824141,-0.028381411,8.643668e-05,-0.00020529055,-0.0072938395,-0.06122047,-0.00014281957,-0.00011215668,-0.00014052066,0.00025836553,0.08530126,0.0008604789,-0.00017222425,-0.0059586414,4.4059147e-05,-0.0003696312,0.00019339332,-0.00041075004,0.00033602383,-0.0072750063,0.023535337,0.016426919,-0.017342083,0.0001348165,-0.00021887991,0.00012278983,0.011290082,-0.009622706,-0.010053543,6.751057e-05,0.00011076017,0.023530135,-0.00016254606,0.00039569932,1.4235575e-05,6.139931e-05,-3.579029e-05,-0.01816763,0.0073320996,0.0056675025,-0.00019677261,5.176171e-05,-0.00015238361,-0.068385795,-9.583052e-05,-5.810067e-05,0.027924595,-0.0035118088,-1.9657182e-06,-0.012031196,-8.7178305e-05,0.000774577,0.0005467204,2.759983e-05,4.7425587e-05,0.00063950336,-0.02487331,1.4750218e-05,-0.00011786166,0.000104221916,-0.00419528,-0.00055649295,-0.026390819,0.00014554325,0.0050399206,-0.00051294314,0.00055690797,-5.864136e-05,0.00028165444,0.000623041,-0.00016265023,0.000757083,0.0006195693,-0.025175402,-0.06280894,0.022519726,-1.3372025e-05,-7.808627e-05,0.00028674642,3.92313e-05,0.00014834896,0.0015241127,0.00012295,-7.692498e-05,2.5480424e-06,0.00016513607,-0.014223077,-0.0018500829,9.915272e-05,-0.00199186,0.018984333,-9.2619375e-06,-6.3451516e-05,0.00018338342,-0.00029913388,0.00018848573,-2.0537615e-05,-0.01763419,-7.3085175e-05,0.006467922,-0.0066155833,-0.015257025,-0.003584269,0.0073452867,-8.018063e-05,2.0787991e-05,0.001094097,1.7905635e-05,-0.0005916371,-1.6284876e-05,-0.14504847,0.0007078803,-7.5438375e-06,-0.00020856847,0.043345194,0.00028913768,-0.00020060204,0.00042711088,0.03426683,-0.03628956,-0.0024714167,-9.780884e-05,-0.0002844149,-0.015843192,0.00043361337,0.00020827347,0.00013650913,0.0021067464,-0.0114729935,-0.08299644,-0.00028986955,-0.08782409,-0.00016497655,7.110003e-05,-5.428319e-05,-3.4958524e-05,0.00013519687,0.00031515225,0.00026496794,8.9909234e-05,0.00028887967,-0.00046696293,0.0005020916,-0.0042567356,0.055364307,3.295201e-05,-0.02044509,0.000612553,0.0004846976,-0.06160124,0.032133173,0.0011506593,-3.5556088e-05,-0.02518155,2.1316204e-05,-0.043961886,7.9391175e-05,7.4235875e-05,-8.1016464e-05,-0.017294124,-0.040199846,-7.2006085e-05,-0.011597953,-0.0024349284,1.7957205e-05,9.608956e-05,-0.0011486004,0.00030774405,0.0005649052,1.4964716e-05,4.5713664e-06,-0.033133034,-0.037548903,5.777105e-06,0.00020069494,0.00014103924,0.00012355647,2.3299852e-05,0.0007570764,0.0003272042,-0.00017151219,-4.9785573e-05,6.5447835e-05,-0.04890386,-0.013286406,-0.02548319,0.020836065,-1.9227744e-05,0.0052910503,0.00025157092,-0.00036125697,0.0002982998,0.0001422894,0.0046848645,-0.009073016,6.888473e-05,0.00082593685,0.000328661,-0.0015962663,0.0002682478,-0.0139486715,4.547206e-05,0.00035829368,6.996495e-05,0.0013849068,-0.0010901158,0.0003197106,-0.047513727,3.6619913e-05,6.1786406e-05,-0.003914706,-0.029771911,-0.004787184,-0.00046904074,-9.451137e-05,-0.00013533785,-0.0041145496,0.001546807,0.16481808,0.000112623326,1.5290726e-07,-0.00044888526,-2.6087282e-05,0.00023484057,-0.0008438477,-0.0003590909,-0.030427353,0.08247766,-0.002841979,6.111138e-05,0.009379502,0.00019983696,0.00017270174,-0.00022651898,3.9580853e-05,-0.00013644726,-5.2783853e-05,0.00043268924,-0.023698851,0.0001537458,-0.0032430738,0.00023980936,-0.00011120577,-0.00015729966,-0.004321129,2.6780817e-05,-0.00017461147,-0.0003218961,0.00013088709,0.0004392455,9.213302e-05,-0.00015675157,0.0002143126,-0.018890306,-0.031540513,-0.042859837,-2.7903667e-05,2.0935337e-05,0.00030783194,-0.011920078,-0.000100319645,-0.0002656593,-0.000103448,8.079096e-06,0.00020421551,0.0014499184,0.015695838,-0.016184438,-3.888964e-05,-0.009767718,0.0006912656,8.797024e-05,-0.026162624,0.00040597472,0.0002767056,0.0011117712,3.7126358e-06,0.0009151487,9.0898284e-05,0.0003439356,-0.00018759377,-0.027172672,7.653001e-05,-0.026514351,0.00019961124,9.2826616e-05,-0.01926578,-0.00029660683,-3.7509275e-05,-2.4650892e-05,0.000109931505,-3.572083e-05,0.0051243547,-9.800905e-05,-2.084732e-05,0.00027299026,-0.00010748608,-0.030282777,-0.00011628719,0.04134008,-0.0058909906,-0.00019592886,-0.00012431131,9.5136245e-05,0.00030570826,-0.000121364916,1.7186852e-05,0.00040745267,0.0002973636,-0.0038321386,0.00022688611,-0.08268139,-0.039620157,-2.628545e-05,0.017463762,0.10935373,0.00039936305,0.0430859,0.0463805,-1.3908791e-05,0.00035365165,0.006941225,-0.00018686852,0.0003428635,0.00033846227,0.041857626,-0.0018910114,0.00043290333,-0.00012355026,0.00017133425,7.009977e-05,2.115543e-05,8.811969e-05,-0.00025364026,0.005157899,0.010994957,-0.036996853,0.00021744815,0.00022872796,0.00053140346,-0.0062477225,7.729323e-05,5.865138e-05,-0.012624636,-5.563141e-05,0.0009520052,4.169194e-05,0.012981617,-4.587374e-06,0.00010241099,-0.00018752867,0.015905531,-0.00015087833,0.00049090624,0.0017685816,-0.022211337,-0.033482645,0.0812873,5.988111e-05,-0.00021679165,-0.000255029,6.940273e-05,0.012911765,-0.00024098033,-9.937036e-05,-0.0719413,4.502875e-05,-0.00016672551,-6.44086e-05,-0.017432055,0.06340062,0.00015930018,0.00035093512,-0.0002941762,7.680962e-05,-0.0003204481,0.00038804734,-2.5082963e-05,0.017542375,-0.018420434,0.00076720596,0.060680665,-0.094428435,-7.543867e-06,-0.0057324274,3.3066233e-05,-0.00015264147,6.286612e-05,-0.0014779541,-6.782036e-06,0.00017127449,0.00040832395,-7.478913e-05,0.00025768875,9.610879e-05,6.5581495e-05,-0.015635913,0.00036255075,0.00021511543,0.00040907756,0.00045992906,-0.04158123,1.1646923e-05,-5.2472285e-05,0.00010833776,0.0005368459,0.0049322243,-0.0003898278,0.00011243836,0.16465802,0.028510973,-0.025070708,-0.00011270815,-0.025114292,6.02382e-07,0.00080828124,0.041533884,0.000103549675,-0.028857175,0.0011963734,-5.045215e-05,-4.724896e-05,-0.000771407,-7.402515e-05,0.0003955783,-0.002213745,-7.3293795e-06,-9.290328e-05,-0.048565324,0.0005181643,-0.0003340613,0.0007832551,-7.042143e-05,0.00040135407,-0.06848298,-4.2121424e-05,-2.7120303e-05,0.0004054797,0.0446581,-5.502905e-05,-0.038227852,-2.794985e-05,2.9504685e-05,-0.064357884,0.00016441199,0.00018917151,0.08126669,0.00028972712,2.0734147e-05,-0.00017516522,-0.00026341056,8.769548e-05,2.1637185e-05,4.063122e-05,0.00021819113,0.0002889717,0.04091678,-0.00014748279,-4.7452893e-05,-0.00016711418,3.8147886e-05,-0.0003781038,-0.06615314,0.00021265342,0.0007286695,0.07147406,-9.0704525e-05,3.092668e-05,-3.762117e-05,-9.603075e-05,-0.0006032325,-0.0024966067,-0.0008391472,-8.6508386e-05,-6.6487984e-05,0.00048128536,-0.029587163,-0.027980896,-0.026108049,0.015236805,0.08157804,8.3996805e-05,-0.036142547,-2.3279317e-05,8.9396824e-05,-0.00025063753,-1.7226113e-05,0.00037358576,1.6016014e-05,1.6947197e-05,0.00011405202,-0.0027224112,0.0010470812,0.00023067639,-7.628378e-05,7.4304717e-06,4.3202832e-05,-0.03138987,0.011927375,0.00017929784,-7.160802e-05,0.00023245746,-3.1912346e-05,-0.026486496,0.00013949763,0.00031628384,-0.026812969,3.8205486e-05,-0.0005991238,0.00019126196,-0.003423892,7.4033414e-05,7.037806e-05,-0.06284827,-0.023619635,-0.040901344,-0.025701987,0.0001661344,0.00040744097,-9.235922e-06,0.00025970355,0.0004483451,0.00027718683,-0.043559738,0.00032773466,2.1921327e-05,-0.038510803,0.00030033468,-1.6906966e-05,-0.015063095,-9.609212e-05,-0.033736426,-0.00024312532,-0.00028607913,0.015504644,-0.0020946967,-0.016949233,8.7585766e-05,0.0055287685,0.0004294736,9.312825e-05,-9.982963e-05,-4.4867647e-05,-0.008375213,0.00028371668,0.017835949,-0.026320636,-0.0074050915,0.0002307658,-3.78641e-05,-5.1337003e-05,-0.00012652097,-2.5942725e-05,0.00064390374,-0.0009633728,-0.012252318,-0.00010061525,0.0013563093,0.0006780768,0.00017459152,-0.0024315484,-0.021560282,0.00027897555,-0.00057219615,-0.008306805,-0.00039916483,-0.16309656,0.00023534746
